|--- Current_Land_Base_Value <= 184050.00
|   |--- Current_Improvement_Base_Value <= 212050.00
|   |   |--- LAND_Curr_Value <= 66391.00
|   |   |   |--- Current_Improvement_Base_Year <= 1988.50
|   |   |   |   |--- IMPROVE_Curr_Value <= 6415.00
|   |   |   |   |   |--- CENTER_LON <= -118.62
|   |   |   |   |   |   |--- Current_Improvement_Base_Value <= 450.00
|   |   |   |   |   |   |   |--- value: [400004.00]
|   |   |   |   |   |   |--- Current_Improvement_Base_Value >  450.00
|   |   |   |   |   |   |   |--- value: [437504.00]
|   |   |   |   |   |--- CENTER_LON >  -118.62
|   |   |   |   |   |   |--- CENTER_LAT <= 34.00
|   |   |   |   |   |   |   |--- Zoning_Code_int <= 3189.00
|   |   |   |   |   |   |   |   |--- IMPROVE_Curr_Value <= 1612.50
|   |   |   |   |   |   |   |   |   |--- CENTER_LON <= -59.12
|   |   |   |   |   |   |   |   |   |   |--- LAND_Curr_Value <= 19970.00
|   |   |   |   |   |   |   |   |   |   |   |--- value: [75000.00]
|   |   |   |   |   |   |   |   |   |   |--- LAND_Curr_Value >  19970.00
|   |   |   |   |   |   |   |   |   |   |   |--- value: [65000.00]
|   |   |   |   |   |   |   |   |   |--- CENTER_LON >  -59.12
|   |   |   |   |   |   |   |   |   |   |--- value: [150001.00]
|   |   |   |   |   |   |   |   |--- IMPROVE_Curr_Value >  1612.50
|   |   |   |   |   |   |   |   |   |--- Current_Land_Base_Value <= 8343.00
|   |   |   |   |   |   |   |   |   |   |--- LAND_Curr_Value <= 11276.00
|   |   |   |   |   |   |   |   |   |   |   |--- value: [80000.00]
|   |   |   |   |   |   |   |   |   |   |--- LAND_Curr_Value >  11276.00
|   |   |   |   |   |   |   |   |   |   |   |--- value: [161501.00]
|   |   |   |   |   |   |   |   |   |--- Current_Land_Base_Value >  8343.00
|   |   |   |   |   |   |   |   |   |   |--- BD_LINE_1_RCN_Main <= 4730.00
|   |   |   |   |   |   |   |   |   |   |   |--- value: [215002.00]
|   |   |   |   |   |   |   |   |   |   |--- BD_LINE_1_RCN_Main >  4730.00
|   |   |   |   |   |   |   |   |   |   |   |--- value: [225002.00]
|   |   |   |   |   |   |   |--- Zoning_Code_int >  3189.00
|   |   |   |   |   |   |   |   |--- MA_Direction_int <= 2.50
|   |   |   |   |   |   |   |   |   |--- MA_Localization_int <= 87065.50
|   |   |   |   |   |   |   |   |   |   |--- value: [331003.00]
|   |   |   |   |   |   |   |   |   |--- MA_Localization_int >  87065.50
|   |   |   |   |   |   |   |   |   |   |--- TRA_1 <= 6826.00
|   |   |   |   |   |   |   |   |   |   |   |--- value: [400004.00]
|   |   |   |   |   |   |   |   |   |   |--- TRA_1 >  6826.00
|   |   |   |   |   |   |   |   |   |   |   |--- value: [375003.00]
|   |   |   |   |   |   |   |   |--- MA_Direction_int >  2.50
|   |   |   |   |   |   |   |   |   |--- MA_Direction_int <= 4.50
|   |   |   |   |   |   |   |   |   |   |--- value: [200002.00]
|   |   |   |   |   |   |   |   |   |--- MA_Direction_int >  4.50
|   |   |   |   |   |   |   |   |   |   |--- value: [250002.00]
|   |   |   |   |   |   |--- CENTER_LAT >  34.00
|   |   |   |   |   |   |   |--- Parcel_Area <= 2093.00
|   |   |   |   |   |   |   |   |--- TRA_1 <= 4240.00
|   |   |   |   |   |   |   |   |   |--- value: [418004.00]
|   |   |   |   |   |   |   |   |--- TRA_1 >  4240.00
|   |   |   |   |   |   |   |   |   |--- value: [215002.00]
|   |   |   |   |   |   |   |--- Parcel_Area >  2093.00
|   |   |   |   |   |   |   |   |--- TRA_1 <= 5360.00
|   |   |   |   |   |   |   |   |   |--- CENTER_LON <= -118.60
|   |   |   |   |   |   |   |   |   |   |--- value: [100001.00]
|   |   |   |   |   |   |   |   |   |--- CENTER_LON >  -118.60
|   |   |   |   |   |   |   |   |   |   |--- CENTER_LAT <= 34.11
|   |   |   |   |   |   |   |   |   |   |   |--- truncated branch of depth 2
|   |   |   |   |   |   |   |   |   |   |--- CENTER_LAT >  34.11
|   |   |   |   |   |   |   |   |   |   |   |--- truncated branch of depth 2
|   |   |   |   |   |   |   |   |--- TRA_1 >  5360.00
|   |   |   |   |   |   |   |   |   |--- Parcel_Area <= 5309.50
|   |   |   |   |   |   |   |   |   |   |--- value: [115001.00]
|   |   |   |   |   |   |   |   |   |--- Parcel_Area >  5309.50
|   |   |   |   |   |   |   |   |   |   |--- CENTER_LAT <= 34.38
|   |   |   |   |   |   |   |   |   |   |   |--- value: [90000.00]
|   |   |   |   |   |   |   |   |   |   |--- CENTER_LAT >  34.38
|   |   |   |   |   |   |   |   |   |   |   |--- value: [100001.00]
|   |   |   |   |--- IMPROVE_Curr_Value >  6415.00
|   |   |   |   |   |--- CENTER_LAT <= 34.53
|   |   |   |   |   |   |--- BD_LINE_1_Sq_Ft_of_Main_Improve <= 1216.00
|   |   |   |   |   |   |   |--- BD_LINE_1_Year_Changed <= 1979.50
|   |   |   |   |   |   |   |   |--- SA_Zip_Cde <= 900225024.00
|   |   |   |   |   |   |   |   |   |--- BD_LINE_2_Year_Changed <= 1970.00
|   |   |   |   |   |   |   |   |   |   |--- Parcel_Area <= 6214.50
|   |   |   |   |   |   |   |   |   |   |   |--- truncated branch of depth 2
|   |   |   |   |   |   |   |   |   |   |--- Parcel_Area >  6214.50
|   |   |   |   |   |   |   |   |   |   |   |--- truncated branch of depth 2
|   |   |   |   |   |   |   |   |   |--- BD_LINE_2_Year_Changed >  1970.00
|   |   |   |   |   |   |   |   |   |   |--- Landlord_Reappraisal_Year <= 2014.50
|   |   |   |   |   |   |   |   |   |   |   |--- truncated branch of depth 2
|   |   |   |   |   |   |   |   |   |   |--- Landlord_Reappraisal_Year >  2014.50
|   |   |   |   |   |   |   |   |   |   |   |--- value: [250002.00]
|   |   |   |   |   |   |   |   |--- SA_Zip_Cde >  900225024.00
|   |   |   |   |   |   |   |   |   |--- SA_Localization_int <= 2736.50
|   |   |   |   |   |   |   |   |   |   |--- CENTER_LON <= -118.14
|   |   |   |   |   |   |   |   |   |   |   |--- truncated branch of depth 2
|   |   |   |   |   |   |   |   |   |   |--- CENTER_LON >  -118.14
|   |   |   |   |   |   |   |   |   |   |   |--- value: [490004.00]
|   |   |   |   |   |   |   |   |   |--- SA_Localization_int >  2736.50
|   |   |   |   |   |   |   |   |   |   |--- Parcel_Area <= 4373.50
|   |   |   |   |   |   |   |   |   |   |   |--- truncated branch of depth 2
|   |   |   |   |   |   |   |   |   |   |--- Parcel_Area >  4373.50
|   |   |   |   |   |   |   |   |   |   |   |--- truncated branch of depth 2
|   |   |   |   |   |   |   |--- BD_LINE_1_Year_Changed >  1979.50
|   |   |   |   |   |   |   |   |--- Cluster_Location <= 11.50
|   |   |   |   |   |   |   |   |   |--- Cluster_Appraisal_Unit <= 46.00
|   |   |   |   |   |   |   |   |   |   |--- Current_Land_Base_Value <= 26650.00
|   |   |   |   |   |   |   |   |   |   |   |--- truncated branch of depth 2
|   |   |   |   |   |   |   |   |   |   |--- Current_Land_Base_Value >  26650.00
|   |   |   |   |   |   |   |   |   |   |   |--- truncated branch of depth 2
|   |   |   |   |   |   |   |   |   |--- Cluster_Appraisal_Unit >  46.00
|   |   |   |   |   |   |   |   |   |   |--- IMPROVE_Curr_Value <= 132285.00
|   |   |   |   |   |   |   |   |   |   |   |--- truncated branch of depth 2
|   |   |   |   |   |   |   |   |   |   |--- IMPROVE_Curr_Value >  132285.00
|   |   |   |   |   |   |   |   |   |   |   |--- truncated branch of depth 2
|   |   |   |   |   |   |   |   |--- Cluster_Location >  11.50
|   |   |   |   |   |   |   |   |   |--- BD_LINE_1_Quality__Class___Shap_int <= 541.00
|   |   |   |   |   |   |   |   |   |   |--- Landlord_Number_of_Units <= 1.50
|   |   |   |   |   |   |   |   |   |   |   |--- value: [150001.00]
|   |   |   |   |   |   |   |   |   |   |--- Landlord_Number_of_Units >  1.50
|   |   |   |   |   |   |   |   |   |   |   |--- value: [56000.00]
|   |   |   |   |   |   |   |   |   |--- BD_LINE_1_Quality__Class___Shap_int >  541.00
|   |   |   |   |   |   |   |   |   |   |--- Special_Purposes_Plan <= 0.50
|   |   |   |   |   |   |   |   |   |   |   |--- truncated branch of depth 2
|   |   |   |   |   |   |   |   |   |   |--- Special_Purposes_Plan >  0.50
|   |   |   |   |   |   |   |   |   |   |   |--- value: [200002.00]
|   |   |   |   |   |   |--- BD_LINE_1_Sq_Ft_of_Main_Improve >  1216.00
|   |   |   |   |   |   |   |--- BD_LINE_1_RCN_Main <= 39515.00
|   |   |   |   |   |   |   |   |--- Simple_Zone_int <= 1.50
|   |   |   |   |   |   |   |   |   |--- BD_LINE_1_Sq_Ft_of_Main_Improve <= 1559.50
|   |   |   |   |   |   |   |   |   |   |--- CENTER_LON <= -117.81
|   |   |   |   |   |   |   |   |   |   |   |--- value: [396503.00]
|   |   |   |   |   |   |   |   |   |   |--- CENTER_LON >  -117.81
|   |   |   |   |   |   |   |   |   |   |   |--- truncated branch of depth 2
|   |   |   |   |   |   |   |   |   |--- BD_LINE_1_Sq_Ft_of_Main_Improve >  1559.50
|   |   |   |   |   |   |   |   |   |   |--- Hmownr_Exempt_Value <= 3500.00
|   |   |   |   |   |   |   |   |   |   |   |--- truncated branch of depth 2
|   |   |   |   |   |   |   |   |   |   |--- Hmownr_Exempt_Value >  3500.00
|   |   |   |   |   |   |   |   |   |   |   |--- value: [99000.00]
|   |   |   |   |   |   |   |   |--- Simple_Zone_int >  1.50
|   |   |   |   |   |   |   |   |   |--- Parcel_Area <= 3337.50
|   |   |   |   |   |   |   |   |   |   |--- Landlord_Number_of_Units <= 1.00
|   |   |   |   |   |   |   |   |   |   |   |--- truncated branch of depth 2
|   |   |   |   |   |   |   |   |   |   |--- Landlord_Number_of_Units >  1.00
|   |   |   |   |   |   |   |   |   |   |   |--- value: [475004.00]
|   |   |   |   |   |   |   |   |   |--- Parcel_Area >  3337.50
|   |   |   |   |   |   |   |   |   |   |--- CENTER_LON <= -118.48
|   |   |   |   |   |   |   |   |   |   |   |--- truncated branch of depth 2
|   |   |   |   |   |   |   |   |   |   |--- CENTER_LON >  -118.48
|   |   |   |   |   |   |   |   |   |   |   |--- truncated branch of depth 2
|   |   |   |   |   |   |   |--- BD_LINE_1_RCN_Main >  39515.00
|   |   |   |   |   |   |   |   |--- Zoning_Code_int <= 1694.00
|   |   |   |   |   |   |   |   |   |--- Current_Improvement_Base_Value <= 53850.00
|   |   |   |   |   |   |   |   |   |   |--- value: [198001.00]
|   |   |   |   |   |   |   |   |   |--- Current_Improvement_Base_Value >  53850.00
|   |   |   |   |   |   |   |   |   |   |--- value: [150001.00]
|   |   |   |   |   |   |   |   |--- Zoning_Code_int >  1694.00
|   |   |   |   |   |   |   |   |   |--- MA_Localization_int <= 20210.50
|   |   |   |   |   |   |   |   |   |   |--- value: [163001.00]
|   |   |   |   |   |   |   |   |   |--- MA_Localization_int >  20210.50
|   |   |   |   |   |   |   |   |   |   |--- Simple_Zone_int <= 24.00
|   |   |   |   |   |   |   |   |   |   |   |--- truncated branch of depth 2
|   |   |   |   |   |   |   |   |   |   |--- Simple_Zone_int >  24.00
|   |   |   |   |   |   |   |   |   |   |   |--- truncated branch of depth 2
|   |   |   |   |   |--- CENTER_LAT >  34.53
|   |   |   |   |   |   |--- BD_LINE_1_Sq_Ft_of_Main_Improve <= 1892.00
|   |   |   |   |   |   |   |--- Parcel_Area <= 74193.50
|   |   |   |   |   |   |   |   |--- BD_LINE_1_Quality__Class___Shap_int <= 528.50
|   |   |   |   |   |   |   |   |   |--- BD_LINE_1_Yr_Built <= 1970.00
|   |   |   |   |   |   |   |   |   |   |--- MA_Direction_int <= 1.50
|   |   |   |   |   |   |   |   |   |   |   |--- truncated branch of depth 2
|   |   |   |   |   |   |   |   |   |   |--- MA_Direction_int >  1.50
|   |   |   |   |   |   |   |   |   |   |   |--- truncated branch of depth 2
|   |   |   |   |   |   |   |   |   |--- BD_LINE_1_Yr_Built >  1970.00
|   |   |   |   |   |   |   |   |   |   |--- value: [200002.00]
|   |   |   |   |   |   |   |   |--- BD_LINE_1_Quality__Class___Shap_int >  528.50
|   |   |   |   |   |   |   |   |   |--- SA_Direction_int <= 1.50
|   |   |   |   |   |   |   |   |   |   |--- Parcel_Area <= 6383.00
|   |   |   |   |   |   |   |   |   |   |   |--- truncated branch of depth 2
|   |   |   |   |   |   |   |   |   |   |--- Parcel_Area >  6383.00
|   |   |   |   |   |   |   |   |   |   |   |--- truncated branch of depth 2
|   |   |   |   |   |   |   |   |   |--- SA_Direction_int >  1.50
|   |   |   |   |   |   |   |   |   |   |--- BD_LINE_1_Sq_Ft_of_Main_Improve <= 1433.50
|   |   |   |   |   |   |   |   |   |   |   |--- truncated branch of depth 2
|   |   |   |   |   |   |   |   |   |   |--- BD_LINE_1_Sq_Ft_of_Main_Improve >  1433.50
|   |   |   |   |   |   |   |   |   |   |   |--- truncated branch of depth 2
|   |   |   |   |   |   |   |--- Parcel_Area >  74193.50
|   |   |   |   |   |   |   |   |--- IMPROVE_Curr_Value <= 116168.50
|   |   |   |   |   |   |   |   |   |--- value: [338503.00]
|   |   |   |   |   |   |   |   |--- IMPROVE_Curr_Value >  116168.50
|   |   |   |   |   |   |   |   |   |--- value: [330003.00]
|   |   |   |   |   |   |--- BD_LINE_1_Sq_Ft_of_Main_Improve >  1892.00
|   |   |   |   |   |   |   |--- CENTER_LON <= -118.12
|   |   |   |   |   |   |   |   |--- TRA_1 <= 7636.00
|   |   |   |   |   |   |   |   |   |--- BD_LINE_1_Sq_Ft_of_Main_Improve <= 2648.00
|   |   |   |   |   |   |   |   |   |   |--- Landlord_Number_of_Units <= 0.50
|   |   |   |   |   |   |   |   |   |   |   |--- value: [340003.00]
|   |   |   |   |   |   |   |   |   |   |--- Landlord_Number_of_Units >  0.50
|   |   |   |   |   |   |   |   |   |   |   |--- value: [320003.00]
|   |   |   |   |   |   |   |   |   |--- BD_LINE_1_Sq_Ft_of_Main_Improve >  2648.00
|   |   |   |   |   |   |   |   |   |   |--- CENTER_LON <= -118.18
|   |   |   |   |   |   |   |   |   |   |   |--- value: [350003.00]
|   |   |   |   |   |   |   |   |   |   |--- CENTER_LON >  -118.18
|   |   |   |   |   |   |   |   |   |   |   |--- value: [363503.00]
|   |   |   |   |   |   |   |   |--- TRA_1 >  7636.00
|   |   |   |   |   |   |   |   |   |--- CENTER_LON <= -118.21
|   |   |   |   |   |   |   |   |   |   |--- Cluster_Appraisal_Unit <= 30.00
|   |   |   |   |   |   |   |   |   |   |   |--- value: [400004.00]
|   |   |   |   |   |   |   |   |   |   |--- Cluster_Appraisal_Unit >  30.00
|   |   |   |   |   |   |   |   |   |   |   |--- value: [440004.00]
|   |   |   |   |   |   |   |   |   |--- CENTER_LON >  -118.21
|   |   |   |   |   |   |   |   |   |   |--- Landlord_Reappraisal_Year <= 2001.50
|   |   |   |   |   |   |   |   |   |   |   |--- value: [379003.00]
|   |   |   |   |   |   |   |   |   |   |--- Landlord_Reappraisal_Year >  2001.50
|   |   |   |   |   |   |   |   |   |   |   |--- value: [355003.00]
|   |   |   |   |   |   |   |--- CENTER_LON >  -118.12
|   |   |   |   |   |   |   |   |--- Current_Land_Base_Year <= 1986.00
|   |   |   |   |   |   |   |   |   |--- TRA_1 <= 8087.00
|   |   |   |   |   |   |   |   |   |   |--- value: [230002.00]
|   |   |   |   |   |   |   |   |   |--- TRA_1 >  8087.00
|   |   |   |   |   |   |   |   |   |   |--- value: [178001.00]
|   |   |   |   |   |   |   |   |--- Current_Land_Base_Year >  1986.00
|   |   |   |   |   |   |   |   |   |--- value: [280002.00]
|   |   |   |--- Current_Improvement_Base_Year >  1988.50
|   |   |   |   |--- IMPROVE_Curr_Value <= 159728.00
|   |   |   |   |   |--- Simple_Zone_int <= 10.00
|   |   |   |   |   |   |--- SA_Zip_Cde <= 935210016.00
|   |   |   |   |   |   |   |--- CENTER_LAT <= 34.66
|   |   |   |   |   |   |   |   |--- Zoning_Code_int <= 1542.00
|   |   |   |   |   |   |   |   |   |--- Zoning_Code_int <= 180.00
|   |   |   |   |   |   |   |   |   |   |--- PARCEL_TYP <= 0.50
|   |   |   |   |   |   |   |   |   |   |   |--- truncated branch of depth 2
|   |   |   |   |   |   |   |   |   |   |--- PARCEL_TYP >  0.50
|   |   |   |   |   |   |   |   |   |   |   |--- value: [205002.00]
|   |   |   |   |   |   |   |   |   |--- Zoning_Code_int >  180.00
|   |   |   |   |   |   |   |   |   |   |--- MA_Localization_int <= 30463.00
|   |   |   |   |   |   |   |   |   |   |   |--- truncated branch of depth 2
|   |   |   |   |   |   |   |   |   |   |--- MA_Localization_int >  30463.00
|   |   |   |   |   |   |   |   |   |   |   |--- truncated branch of depth 2
|   |   |   |   |   |   |   |   |--- Zoning_Code_int >  1542.00
|   |   |   |   |   |   |   |   |   |--- Cluster_Appraisal_Unit <= 42.00
|   |   |   |   |   |   |   |   |   |   |--- TRA_1 <= 9707.50
|   |   |   |   |   |   |   |   |   |   |   |--- truncated branch of depth 2
|   |   |   |   |   |   |   |   |   |   |--- TRA_1 >  9707.50
|   |   |   |   |   |   |   |   |   |   |   |--- truncated branch of depth 2
|   |   |   |   |   |   |   |   |   |--- Cluster_Appraisal_Unit >  42.00
|   |   |   |   |   |   |   |   |   |   |--- CENTER_LON <= -118.36
|   |   |   |   |   |   |   |   |   |   |   |--- truncated branch of depth 2
|   |   |   |   |   |   |   |   |   |   |--- CENTER_LON >  -118.36
|   |   |   |   |   |   |   |   |   |   |   |--- truncated branch of depth 2
|   |   |   |   |   |   |   |--- CENTER_LAT >  34.66
|   |   |   |   |   |   |   |   |--- LAND_Curr_Value <= 17113.00
|   |   |   |   |   |   |   |   |   |--- value: [360003.00]
|   |   |   |   |   |   |   |   |--- LAND_Curr_Value >  17113.00
|   |   |   |   |   |   |   |   |   |--- value: [422004.00]
|   |   |   |   |   |   |--- SA_Zip_Cde >  935210016.00
|   |   |   |   |   |   |   |--- LAND_Curr_Value <= 8749.50
|   |   |   |   |   |   |   |   |--- SA_Zip_Cde <= 935395008.00
|   |   |   |   |   |   |   |   |   |--- MA_Localization_int <= 28006.50
|   |   |   |   |   |   |   |   |   |   |--- value: [64000.00]
|   |   |   |   |   |   |   |   |   |--- MA_Localization_int >  28006.50
|   |   |   |   |   |   |   |   |   |   |--- Current_Land_Base_Value <= 55.00
|   |   |   |   |   |   |   |   |   |   |   |--- value: [55000.00]
|   |   |   |   |   |   |   |   |   |   |--- Current_Land_Base_Value >  55.00
|   |   |   |   |   |   |   |   |   |   |   |--- truncated branch of depth 2
|   |   |   |   |   |   |   |   |--- SA_Zip_Cde >  935395008.00
|   |   |   |   |   |   |   |   |   |--- Current_Land_Base_Year <= 2016.00
|   |   |   |   |   |   |   |   |   |   |--- value: [220002.00]
|   |   |   |   |   |   |   |   |   |--- Current_Land_Base_Year >  2016.00
|   |   |   |   |   |   |   |   |   |   |--- value: [268002.00]
|   |   |   |   |   |   |   |--- LAND_Curr_Value >  8749.50
|   |   |   |   |   |   |   |   |--- BD_LINE_1_Yr_Built <= 2013.50
|   |   |   |   |   |   |   |   |   |--- Parcel_Area <= 100541.00
|   |   |   |   |   |   |   |   |   |   |--- Current_Improvement_Base_Year <= 2014.50
|   |   |   |   |   |   |   |   |   |   |   |--- truncated branch of depth 2
|   |   |   |   |   |   |   |   |   |   |--- Current_Improvement_Base_Year >  2014.50
|   |   |   |   |   |   |   |   |   |   |   |--- truncated branch of depth 2
|   |   |   |   |   |   |   |   |   |--- Parcel_Area >  100541.00
|   |   |   |   |   |   |   |   |   |   |--- TRA_1 <= 4660.00
|   |   |   |   |   |   |   |   |   |   |   |--- truncated branch of depth 2
|   |   |   |   |   |   |   |   |   |   |--- TRA_1 >  4660.00
|   |   |   |   |   |   |   |   |   |   |   |--- truncated branch of depth 2
|   |   |   |   |   |   |   |   |--- BD_LINE_1_Yr_Built >  2013.50
|   |   |   |   |   |   |   |   |   |--- Parcel_Area <= 9783.50
|   |   |   |   |   |   |   |   |   |   |--- CENTER_LON <= -118.17
|   |   |   |   |   |   |   |   |   |   |   |--- truncated branch of depth 2
|   |   |   |   |   |   |   |   |   |   |--- CENTER_LON >  -118.17
|   |   |   |   |   |   |   |   |   |   |   |--- value: [392003.00]
|   |   |   |   |   |   |   |   |   |--- Parcel_Area >  9783.50
|   |   |   |   |   |   |   |   |   |   |--- value: [414004.00]
|   |   |   |   |   |--- Simple_Zone_int >  10.00
|   |   |   |   |   |   |--- TRA_1 <= 5.50
|   |   |   |   |   |   |   |--- BD_LINE_1_Year_Changed <= 1969.50
|   |   |   |   |   |   |   |   |--- LAND_Curr_Value <= 29028.50
|   |   |   |   |   |   |   |   |   |--- Current_Land_Base_Value <= 19250.00
|   |   |   |   |   |   |   |   |   |   |--- Parcel_Area <= 1704.50
|   |   |   |   |   |   |   |   |   |   |   |--- truncated branch of depth 2
|   |   |   |   |   |   |   |   |   |   |--- Parcel_Area >  1704.50
|   |   |   |   |   |   |   |   |   |   |   |--- truncated branch of depth 2
|   |   |   |   |   |   |   |   |   |--- Current_Land_Base_Value >  19250.00
|   |   |   |   |   |   |   |   |   |   |--- MA_Localization_int <= 32480.00
|   |   |   |   |   |   |   |   |   |   |   |--- value: [210002.00]
|   |   |   |   |   |   |   |   |   |   |--- MA_Localization_int >  32480.00
|   |   |   |   |   |   |   |   |   |   |   |--- truncated branch of depth 2
|   |   |   |   |   |   |   |   |--- LAND_Curr_Value >  29028.50
|   |   |   |   |   |   |   |   |   |--- LAND_Curr_Value <= 30300.00
|   |   |   |   |   |   |   |   |   |   |--- CENTER_LAT <= 34.09
|   |   |   |   |   |   |   |   |   |   |   |--- value: [402004.00]
|   |   |   |   |   |   |   |   |   |   |--- CENTER_LAT >  34.09
|   |   |   |   |   |   |   |   |   |   |   |--- value: [58000.00]
|   |   |   |   |   |   |   |   |   |--- LAND_Curr_Value >  30300.00
|   |   |   |   |   |   |   |   |   |   |--- CENTER_LON <= -118.23
|   |   |   |   |   |   |   |   |   |   |   |--- truncated branch of depth 2
|   |   |   |   |   |   |   |   |   |   |--- CENTER_LON >  -118.23
|   |   |   |   |   |   |   |   |   |   |   |--- truncated branch of depth 2
|   |   |   |   |   |   |   |--- BD_LINE_1_Year_Changed >  1969.50
|   |   |   |   |   |   |   |   |--- LAND_Curr_Value <= 63203.00
|   |   |   |   |   |   |   |   |   |--- Zoning_Code_int <= 3085.00
|   |   |   |   |   |   |   |   |   |   |--- SA_Zip_Cde <= 450115008.00
|   |   |   |   |   |   |   |   |   |   |   |--- value: [410004.00]
|   |   |   |   |   |   |   |   |   |   |--- SA_Zip_Cde >  450115008.00
|   |   |   |   |   |   |   |   |   |   |   |--- value: [393503.00]
|   |   |   |   |   |   |   |   |   |--- Zoning_Code_int >  3085.00
|   |   |   |   |   |   |   |   |   |   |--- LAND_Curr_Value <= 54870.00
|   |   |   |   |   |   |   |   |   |   |   |--- value: [436004.00]
|   |   |   |   |   |   |   |   |   |   |--- LAND_Curr_Value >  54870.00
|   |   |   |   |   |   |   |   |   |   |   |--- value: [466004.00]
|   |   |   |   |   |   |   |   |--- LAND_Curr_Value >  63203.00
|   |   |   |   |   |   |   |   |   |--- value: [133501.00]
|   |   |   |   |   |   |--- TRA_1 >  5.50
|   |   |   |   |   |   |   |--- CENTER_LAT <= 34.05
|   |   |   |   |   |   |   |   |--- Parcel_Area <= 349.00
|   |   |   |   |   |   |   |   |   |--- MA_Localization_int <= 79970.00
|   |   |   |   |   |   |   |   |   |   |--- Simple_Zone_int <= 21.50
|   |   |   |   |   |   |   |   |   |   |   |--- value: [1000.00]
|   |   |   |   |   |   |   |   |   |   |--- Simple_Zone_int >  21.50
|   |   |   |   |   |   |   |   |   |   |   |--- value: [1500.00]
|   |   |   |   |   |   |   |   |   |--- MA_Localization_int >  79970.00
|   |   |   |   |   |   |   |   |   |   |--- value: [2500.00]
|   |   |   |   |   |   |   |   |--- Parcel_Area >  349.00
|   |   |   |   |   |   |   |   |   |--- Current_Land_Base_Value <= 22600.00
|   |   |   |   |   |   |   |   |   |   |--- MA_Direction_int <= 3.00
|   |   |   |   |   |   |   |   |   |   |   |--- truncated branch of depth 2
|   |   |   |   |   |   |   |   |   |   |--- MA_Direction_int >  3.00
|   |   |   |   |   |   |   |   |   |   |   |--- truncated branch of depth 2
|   |   |   |   |   |   |   |   |   |--- Current_Land_Base_Value >  22600.00
|   |   |   |   |   |   |   |   |   |   |--- Current_Land_Base_Year <= 2014.50
|   |   |   |   |   |   |   |   |   |   |   |--- truncated branch of depth 2
|   |   |   |   |   |   |   |   |   |   |--- Current_Land_Base_Year >  2014.50
|   |   |   |   |   |   |   |   |   |   |   |--- truncated branch of depth 2
|   |   |   |   |   |   |   |--- CENTER_LAT >  34.05
|   |   |   |   |   |   |   |   |--- IMPROVE_Curr_Value <= 125300.50
|   |   |   |   |   |   |   |   |   |--- Parcel_Area <= 56665.50
|   |   |   |   |   |   |   |   |   |   |--- City_int <= 126.50
|   |   |   |   |   |   |   |   |   |   |   |--- truncated branch of depth 2
|   |   |   |   |   |   |   |   |   |   |--- City_int >  126.50
|   |   |   |   |   |   |   |   |   |   |   |--- truncated branch of depth 2
|   |   |   |   |   |   |   |   |   |--- Parcel_Area >  56665.50
|   |   |   |   |   |   |   |   |   |   |--- SA_Localization_int <= 1980.50
|   |   |   |   |   |   |   |   |   |   |   |--- truncated branch of depth 2
|   |   |   |   |   |   |   |   |   |   |--- SA_Localization_int >  1980.50
|   |   |   |   |   |   |   |   |   |   |   |--- truncated branch of depth 2
|   |   |   |   |   |   |   |   |--- IMPROVE_Curr_Value >  125300.50
|   |   |   |   |   |   |   |   |   |--- Current_Improvement_Base_Year <= 2014.50
|   |   |   |   |   |   |   |   |   |   |--- CENTER_LAT <= 34.56
|   |   |   |   |   |   |   |   |   |   |   |--- truncated branch of depth 2
|   |   |   |   |   |   |   |   |   |   |--- CENTER_LAT >  34.56
|   |   |   |   |   |   |   |   |   |   |   |--- truncated branch of depth 2
|   |   |   |   |   |   |   |   |   |--- Current_Improvement_Base_Year >  2014.50
|   |   |   |   |   |   |   |   |   |   |--- IMPROVE_Curr_Value <= 145224.00
|   |   |   |   |   |   |   |   |   |   |   |--- truncated branch of depth 2
|   |   |   |   |   |   |   |   |   |   |--- IMPROVE_Curr_Value >  145224.00
|   |   |   |   |   |   |   |   |   |   |   |--- truncated branch of depth 2
|   |   |   |   |--- IMPROVE_Curr_Value >  159728.00
|   |   |   |   |   |--- Current_Land_Base_Year <= 2014.50
|   |   |   |   |   |   |--- Cluster_Appraisal_Unit <= 28.00
|   |   |   |   |   |   |   |--- BD_LINE_1_Sq_Ft_of_Main_Improve <= 2221.50
|   |   |   |   |   |   |   |   |--- BD_LINE_1_Year_Changed <= 1984.50
|   |   |   |   |   |   |   |   |   |--- Current_Land_Base_Value <= 40979.50
|   |   |   |   |   |   |   |   |   |   |--- value: [105001.00]
|   |   |   |   |   |   |   |   |   |--- Current_Land_Base_Value >  40979.50
|   |   |   |   |   |   |   |   |   |   |--- value: [135001.00]
|   |   |   |   |   |   |   |   |--- BD_LINE_1_Year_Changed >  1984.50
|   |   |   |   |   |   |   |   |   |--- Parcel_Area <= 8945.50
|   |   |   |   |   |   |   |   |   |   |--- TRA_1 <= 6957.50
|   |   |   |   |   |   |   |   |   |   |   |--- truncated branch of depth 2
|   |   |   |   |   |   |   |   |   |   |--- TRA_1 >  6957.50
|   |   |   |   |   |   |   |   |   |   |   |--- truncated branch of depth 2
|   |   |   |   |   |   |   |   |   |--- Parcel_Area >  8945.50
|   |   |   |   |   |   |   |   |   |   |--- BD_LINE_1_Year_Changed <= 1999.50
|   |   |   |   |   |   |   |   |   |   |   |--- truncated branch of depth 2
|   |   |   |   |   |   |   |   |   |   |--- BD_LINE_1_Year_Changed >  1999.50
|   |   |   |   |   |   |   |   |   |   |   |--- truncated branch of depth 2
|   |   |   |   |   |   |   |--- BD_LINE_1_Sq_Ft_of_Main_Improve >  2221.50
|   |   |   |   |   |   |   |   |--- BD_LINE_1_Sq_Ft_of_Main_Improve <= 2593.00
|   |   |   |   |   |   |   |   |   |--- CENTER_LON <= -118.19
|   |   |   |   |   |   |   |   |   |   |--- IMPROVE_Curr_Value <= 198282.50
|   |   |   |   |   |   |   |   |   |   |   |--- value: [320003.00]
|   |   |   |   |   |   |   |   |   |   |--- IMPROVE_Curr_Value >  198282.50
|   |   |   |   |   |   |   |   |   |   |   |--- value: [350003.00]
|   |   |   |   |   |   |   |   |   |--- CENTER_LON >  -118.19
|   |   |   |   |   |   |   |   |   |   |--- Current_Improvement_Base_Year <= 2006.00
|   |   |   |   |   |   |   |   |   |   |   |--- truncated branch of depth 2
|   |   |   |   |   |   |   |   |   |   |--- Current_Improvement_Base_Year >  2006.00
|   |   |   |   |   |   |   |   |   |   |   |--- truncated branch of depth 2
|   |   |   |   |   |   |   |   |--- BD_LINE_1_Sq_Ft_of_Main_Improve >  2593.00
|   |   |   |   |   |   |   |   |   |--- TRA_1 <= 8436.50
|   |   |   |   |   |   |   |   |   |   |--- Current_Improvement_Base_Year <= 2012.50
|   |   |   |   |   |   |   |   |   |   |   |--- truncated branch of depth 2
|   |   |   |   |   |   |   |   |   |   |--- Current_Improvement_Base_Year >  2012.50
|   |   |   |   |   |   |   |   |   |   |   |--- value: [310003.00]
|   |   |   |   |   |   |   |   |   |--- TRA_1 >  8436.50
|   |   |   |   |   |   |   |   |   |   |--- BD_LINE_1_Sq_Ft_of_Main_Improve <= 2897.50
|   |   |   |   |   |   |   |   |   |   |   |--- truncated branch of depth 2
|   |   |   |   |   |   |   |   |   |   |--- BD_LINE_1_Sq_Ft_of_Main_Improve >  2897.50
|   |   |   |   |   |   |   |   |   |   |   |--- truncated branch of depth 2
|   |   |   |   |   |   |--- Cluster_Appraisal_Unit >  28.00
|   |   |   |   |   |   |   |--- CENTER_LAT <= 34.18
|   |   |   |   |   |   |   |   |--- Current_Improvement_Base_Value <= 177600.00
|   |   |   |   |   |   |   |   |   |--- BD_LINE_1_No_of_Units <= 0.50
|   |   |   |   |   |   |   |   |   |   |--- value: [400004.00]
|   |   |   |   |   |   |   |   |   |--- BD_LINE_1_No_of_Units >  0.50
|   |   |   |   |   |   |   |   |   |   |--- Zoning_Code_int <= 5019.50
|   |   |   |   |   |   |   |   |   |   |   |--- truncated branch of depth 2
|   |   |   |   |   |   |   |   |   |   |--- Zoning_Code_int >  5019.50
|   |   |   |   |   |   |   |   |   |   |   |--- truncated branch of depth 2
|   |   |   |   |   |   |   |   |--- Current_Improvement_Base_Value >  177600.00
|   |   |   |   |   |   |   |   |   |--- MA_Localization_int <= 75295.00
|   |   |   |   |   |   |   |   |   |   |--- LAND_Curr_Value <= 53891.00
|   |   |   |   |   |   |   |   |   |   |   |--- truncated branch of depth 2
|   |   |   |   |   |   |   |   |   |   |--- LAND_Curr_Value >  53891.00
|   |   |   |   |   |   |   |   |   |   |   |--- value: [376003.00]
|   |   |   |   |   |   |   |   |   |--- MA_Localization_int >  75295.00
|   |   |   |   |   |   |   |   |   |   |--- BD_LINE_1_Quality__Class___Shap_int <= 858.00
|   |   |   |   |   |   |   |   |   |   |   |--- value: [410004.00]
|   |   |   |   |   |   |   |   |   |   |--- BD_LINE_1_Quality__Class___Shap_int >  858.00
|   |   |   |   |   |   |   |   |   |   |   |--- truncated branch of depth 2
|   |   |   |   |   |   |   |--- CENTER_LAT >  34.18
|   |   |   |   |   |   |   |   |--- Parcel_Area <= 14116.00
|   |   |   |   |   |   |   |   |   |--- Current_Land_Base_Value <= 44192.50
|   |   |   |   |   |   |   |   |   |   |--- MA_Localization_int <= 119240.50
|   |   |   |   |   |   |   |   |   |   |   |--- truncated branch of depth 2
|   |   |   |   |   |   |   |   |   |   |--- MA_Localization_int >  119240.50
|   |   |   |   |   |   |   |   |   |   |   |--- value: [370003.00]
|   |   |   |   |   |   |   |   |   |--- Current_Land_Base_Value >  44192.50
|   |   |   |   |   |   |   |   |   |   |--- Simple_Zone_int <= 24.00
|   |   |   |   |   |   |   |   |   |   |   |--- truncated branch of depth 2
|   |   |   |   |   |   |   |   |   |   |--- Simple_Zone_int >  24.00
|   |   |   |   |   |   |   |   |   |   |   |--- value: [350003.00]
|   |   |   |   |   |   |   |   |--- Parcel_Area >  14116.00
|   |   |   |   |   |   |   |   |   |--- BD_LINE_1_Sq_Ft_of_Main_Improve <= 1921.00
|   |   |   |   |   |   |   |   |   |   |--- BD_LINE_1_Quality__Class___Shap_int <= 1014.00
|   |   |   |   |   |   |   |   |   |   |   |--- truncated branch of depth 2
|   |   |   |   |   |   |   |   |   |   |--- BD_LINE_1_Quality__Class___Shap_int >  1014.00
|   |   |   |   |   |   |   |   |   |   |   |--- truncated branch of depth 2
|   |   |   |   |   |   |   |   |   |--- BD_LINE_1_Sq_Ft_of_Main_Improve >  1921.00
|   |   |   |   |   |   |   |   |   |   |--- TRA_1 <= 7987.50
|   |   |   |   |   |   |   |   |   |   |   |--- truncated branch of depth 2
|   |   |   |   |   |   |   |   |   |   |--- TRA_1 >  7987.50
|   |   |   |   |   |   |   |   |   |   |   |--- value: [415004.00]
|   |   |   |   |   |--- Current_Land_Base_Year >  2014.50
|   |   |   |   |   |   |--- IMPROVE_Curr_Value <= 189155.00
|   |   |   |   |   |   |   |--- Cluster_Type <= 5.00
|   |   |   |   |   |   |   |   |--- Current_Improvement_Base_Value <= 174200.00
|   |   |   |   |   |   |   |   |   |--- BD_LINE_1_Sq_Ft_of_Main_Improve <= 2779.00
|   |   |   |   |   |   |   |   |   |   |--- IMPROVE_Curr_Value <= 179176.00
|   |   |   |   |   |   |   |   |   |   |   |--- truncated branch of depth 2
|   |   |   |   |   |   |   |   |   |   |--- IMPROVE_Curr_Value >  179176.00
|   |   |   |   |   |   |   |   |   |   |   |--- value: [55000.00]
|   |   |   |   |   |   |   |   |   |--- BD_LINE_1_Sq_Ft_of_Main_Improve >  2779.00
|   |   |   |   |   |   |   |   |   |   |--- value: [430004.00]
|   |   |   |   |   |   |   |   |--- Current_Improvement_Base_Value >  174200.00
|   |   |   |   |   |   |   |   |   |--- Current_Improvement_Base_Value <= 194550.00
|   |   |   |   |   |   |   |   |   |   |--- Parcel_Area <= 101762.50
|   |   |   |   |   |   |   |   |   |   |   |--- truncated branch of depth 2
|   |   |   |   |   |   |   |   |   |   |--- Parcel_Area >  101762.50
|   |   |   |   |   |   |   |   |   |   |   |--- truncated branch of depth 2
|   |   |   |   |   |   |   |   |   |--- Current_Improvement_Base_Value >  194550.00
|   |   |   |   |   |   |   |   |   |   |--- value: [62500.00]
|   |   |   |   |   |   |   |--- Cluster_Type >  5.00
|   |   |   |   |   |   |   |   |--- BD_LINE_1_Year_Changed <= 1977.00
|   |   |   |   |   |   |   |   |   |--- IMPROVE_Curr_Value <= 174165.00
|   |   |   |   |   |   |   |   |   |   |--- value: [450004.00]
|   |   |   |   |   |   |   |   |   |--- IMPROVE_Curr_Value >  174165.00
|   |   |   |   |   |   |   |   |   |   |--- value: [405004.00]
|   |   |   |   |   |   |   |   |--- BD_LINE_1_Year_Changed >  1977.00
|   |   |   |   |   |   |   |   |   |--- value: [220002.00]
|   |   |   |   |   |   |--- IMPROVE_Curr_Value >  189155.00
|   |   |   |   |   |   |   |--- BD_LINE_1_Quality__Class___Shap_int <= 1192.50
|   |   |   |   |   |   |   |   |--- Current_Improvement_Base_Value <= 198600.00
|   |   |   |   |   |   |   |   |   |--- Landlord_Reappraisal_Year <= 2016.50
|   |   |   |   |   |   |   |   |   |   |--- Current_Improvement_Base_Value <= 194100.00
|   |   |   |   |   |   |   |   |   |   |   |--- truncated branch of depth 2
|   |   |   |   |   |   |   |   |   |   |--- Current_Improvement_Base_Value >  194100.00
|   |   |   |   |   |   |   |   |   |   |   |--- truncated branch of depth 2
|   |   |   |   |   |   |   |   |   |--- Landlord_Reappraisal_Year >  2016.50
|   |   |   |   |   |   |   |   |   |   |--- value: [400004.00]
|   |   |   |   |   |   |   |   |--- Current_Improvement_Base_Value >  198600.00
|   |   |   |   |   |   |   |   |   |--- BD_LINE_1_Unit_Cost_Main <= 6895.50
|   |   |   |   |   |   |   |   |   |   |--- Current_Improvement_Base_Value <= 203800.00
|   |   |   |   |   |   |   |   |   |   |   |--- truncated branch of depth 2
|   |   |   |   |   |   |   |   |   |   |--- Current_Improvement_Base_Value >  203800.00
|   |   |   |   |   |   |   |   |   |   |   |--- truncated branch of depth 2
|   |   |   |   |   |   |   |   |   |--- BD_LINE_1_Unit_Cost_Main >  6895.50
|   |   |   |   |   |   |   |   |   |   |--- Hmownr_Exempt_Number <= 0.50
|   |   |   |   |   |   |   |   |   |   |   |--- value: [240002.00]
|   |   |   |   |   |   |   |   |   |   |--- Hmownr_Exempt_Number >  0.50
|   |   |   |   |   |   |   |   |   |   |   |--- value: [125001.00]
|   |   |   |   |   |   |   |--- BD_LINE_1_Quality__Class___Shap_int >  1192.50
|   |   |   |   |   |   |   |   |--- value: [450004.00]
|   |   |--- LAND_Curr_Value >  66391.00
|   |   |   |--- Current_Land_Base_Year <= 2014.50
|   |   |   |   |--- BD_LINE_1_Sq_Ft_of_Main_Improve <= 887.00
|   |   |   |   |   |--- CENTER_LON <= -118.39
|   |   |   |   |   |   |--- CENTER_LON <= -118.52
|   |   |   |   |   |   |   |--- Parcel_Area <= 11748.50
|   |   |   |   |   |   |   |   |--- MA_Localization_int <= 105581.50
|   |   |   |   |   |   |   |   |   |--- value: [100001.00]
|   |   |   |   |   |   |   |   |--- MA_Localization_int >  105581.50
|   |   |   |   |   |   |   |   |   |--- value: [156001.00]
|   |   |   |   |   |   |   |--- Parcel_Area >  11748.50
|   |   |   |   |   |   |   |   |--- Cluster_Appraisal_Unit <= 74.00
|   |   |   |   |   |   |   |   |   |--- value: [156001.00]
|   |   |   |   |   |   |   |   |--- Cluster_Appraisal_Unit >  74.00
|   |   |   |   |   |   |   |   |   |--- BD_LINE_1_Yr_Built <= 1991.00
|   |   |   |   |   |   |   |   |   |   |--- BD_LINE_1_Sq_Ft_of_Main_Improve <= 786.00
|   |   |   |   |   |   |   |   |   |   |   |--- truncated branch of depth 2
|   |   |   |   |   |   |   |   |   |   |--- BD_LINE_1_Sq_Ft_of_Main_Improve >  786.00
|   |   |   |   |   |   |   |   |   |   |   |--- truncated branch of depth 2
|   |   |   |   |   |   |   |   |   |--- BD_LINE_1_Yr_Built >  1991.00
|   |   |   |   |   |   |   |   |   |   |--- BD_LINE_1_Yr_Built <= 2002.50
|   |   |   |   |   |   |   |   |   |   |   |--- value: [398003.00]
|   |   |   |   |   |   |   |   |   |   |--- BD_LINE_1_Yr_Built >  2002.50
|   |   |   |   |   |   |   |   |   |   |   |--- value: [359003.00]
|   |   |   |   |   |   |--- CENTER_LON >  -118.52
|   |   |   |   |   |   |   |--- BD_LINE_1_Yr_Built <= 1972.50
|   |   |   |   |   |   |   |   |--- SA_Localization_int <= 11987.00
|   |   |   |   |   |   |   |   |   |--- Zoning_Code_int <= 7546.00
|   |   |   |   |   |   |   |   |   |   |--- MA_Direction_int <= 3.50
|   |   |   |   |   |   |   |   |   |   |   |--- truncated branch of depth 2
|   |   |   |   |   |   |   |   |   |   |--- MA_Direction_int >  3.50
|   |   |   |   |   |   |   |   |   |   |   |--- truncated branch of depth 2
|   |   |   |   |   |   |   |   |   |--- Zoning_Code_int >  7546.00
|   |   |   |   |   |   |   |   |   |   |--- Current_Land_Base_Value <= 73975.00
|   |   |   |   |   |   |   |   |   |   |   |--- truncated branch of depth 2
|   |   |   |   |   |   |   |   |   |   |--- Current_Land_Base_Value >  73975.00
|   |   |   |   |   |   |   |   |   |   |   |--- truncated branch of depth 2
|   |   |   |   |   |   |   |   |--- SA_Localization_int >  11987.00
|   |   |   |   |   |   |   |   |   |--- BD_LINE_1_Year_Changed <= 1981.00
|   |   |   |   |   |   |   |   |   |   |--- SA_Localization_int <= 73324.50
|   |   |   |   |   |   |   |   |   |   |   |--- truncated branch of depth 2
|   |   |   |   |   |   |   |   |   |   |--- SA_Localization_int >  73324.50
|   |   |   |   |   |   |   |   |   |   |   |--- truncated branch of depth 2
|   |   |   |   |   |   |   |   |   |--- BD_LINE_1_Year_Changed >  1981.00
|   |   |   |   |   |   |   |   |   |   |--- BD_LINE_1_No_of_Bedrooms <= 1.50
|   |   |   |   |   |   |   |   |   |   |   |--- value: [470004.00]
|   |   |   |   |   |   |   |   |   |   |--- BD_LINE_1_No_of_Bedrooms >  1.50
|   |   |   |   |   |   |   |   |   |   |   |--- value: [451004.00]
|   |   |   |   |   |   |   |--- BD_LINE_1_Yr_Built >  1972.50
|   |   |   |   |   |   |   |   |--- CENTER_LON <= -118.43
|   |   |   |   |   |   |   |   |   |--- BD_LINE_1_Unit_Cost_Main <= 4460.00
|   |   |   |   |   |   |   |   |   |   |--- Zoning_Code_int <= 3654.00
|   |   |   |   |   |   |   |   |   |   |   |--- value: [300003.00]
|   |   |   |   |   |   |   |   |   |   |--- Zoning_Code_int >  3654.00
|   |   |   |   |   |   |   |   |   |   |   |--- value: [315003.00]
|   |   |   |   |   |   |   |   |   |--- BD_LINE_1_Unit_Cost_Main >  4460.00
|   |   |   |   |   |   |   |   |   |   |--- value: [244002.00]
|   |   |   |   |   |   |   |   |--- CENTER_LON >  -118.43
|   |   |   |   |   |   |   |   |   |--- MA_Localization_int <= 97674.50
|   |   |   |   |   |   |   |   |   |   |--- Residential <= 0.50
|   |   |   |   |   |   |   |   |   |   |   |--- value: [380003.00]
|   |   |   |   |   |   |   |   |   |   |--- Residential >  0.50
|   |   |   |   |   |   |   |   |   |   |   |--- value: [385003.00]
|   |   |   |   |   |   |   |   |   |--- MA_Localization_int >  97674.50
|   |   |   |   |   |   |   |   |   |   |--- value: [372003.00]
|   |   |   |   |   |--- CENTER_LON >  -118.39
|   |   |   |   |   |   |--- IMPROVE_Curr_Value <= 22176.00
|   |   |   |   |   |   |   |--- PARCEL_TYP <= 0.50
|   |   |   |   |   |   |   |   |--- MA_Localization_int <= 139317.50
|   |   |   |   |   |   |   |   |   |--- Parcel_Area <= 2384.00
|   |   |   |   |   |   |   |   |   |   |--- value: [410004.00]
|   |   |   |   |   |   |   |   |   |--- Parcel_Area >  2384.00
|   |   |   |   |   |   |   |   |   |   |--- SA_Localization_int <= 64700.50
|   |   |   |   |   |   |   |   |   |   |   |--- truncated branch of depth 2
|   |   |   |   |   |   |   |   |   |   |--- SA_Localization_int >  64700.50
|   |   |   |   |   |   |   |   |   |   |   |--- truncated branch of depth 2
|   |   |   |   |   |   |   |   |--- MA_Localization_int >  139317.50
|   |   |   |   |   |   |   |   |   |--- Landlord_Reappraisal_Year <= 999.50
|   |   |   |   |   |   |   |   |   |   |--- value: [300003.00]
|   |   |   |   |   |   |   |   |   |--- Landlord_Reappraisal_Year >  999.50
|   |   |   |   |   |   |   |   |   |   |--- CENTER_LON <= -118.21
|   |   |   |   |   |   |   |   |   |   |   |--- value: [480004.00]
|   |   |   |   |   |   |   |   |   |   |--- CENTER_LON >  -118.21
|   |   |   |   |   |   |   |   |   |   |   |--- value: [495004.00]
|   |   |   |   |   |   |   |--- PARCEL_TYP >  0.50
|   |   |   |   |   |   |   |   |--- Current_Land_Base_Value <= 84458.00
|   |   |   |   |   |   |   |   |   |--- value: [382003.00]
|   |   |   |   |   |   |   |   |--- Current_Land_Base_Value >  84458.00
|   |   |   |   |   |   |   |   |   |--- Manufacturing <= 0.50
|   |   |   |   |   |   |   |   |   |   |--- value: [400004.00]
|   |   |   |   |   |   |   |   |   |--- Manufacturing >  0.50
|   |   |   |   |   |   |   |   |   |   |--- value: [422004.00]
|   |   |   |   |   |   |--- IMPROVE_Curr_Value >  22176.00
|   |   |   |   |   |   |   |--- Cluster_Appraisal_Unit <= 13.50
|   |   |   |   |   |   |   |   |--- IMPROVE_Curr_Value <= 85170.00
|   |   |   |   |   |   |   |   |   |--- Parcel_Area <= 6858.00
|   |   |   |   |   |   |   |   |   |   |--- BD_LINE_2_Unit_Cost_Main <= 375.00
|   |   |   |   |   |   |   |   |   |   |   |--- truncated branch of depth 2
|   |   |   |   |   |   |   |   |   |   |--- BD_LINE_2_Unit_Cost_Main >  375.00
|   |   |   |   |   |   |   |   |   |   |   |--- truncated branch of depth 2
|   |   |   |   |   |   |   |   |   |--- Parcel_Area >  6858.00
|   |   |   |   |   |   |   |   |   |   |--- SA_Localization_int <= 57543.50
|   |   |   |   |   |   |   |   |   |   |   |--- truncated branch of depth 2
|   |   |   |   |   |   |   |   |   |   |--- SA_Localization_int >  57543.50
|   |   |   |   |   |   |   |   |   |   |   |--- value: [410004.00]
|   |   |   |   |   |   |   |   |--- IMPROVE_Curr_Value >  85170.00
|   |   |   |   |   |   |   |   |   |--- BD_LINE_2_Sq_Ft_of_Main_Improve <= 826.00
|   |   |   |   |   |   |   |   |   |   |--- TRA_1 <= 725.00
|   |   |   |   |   |   |   |   |   |   |   |--- truncated branch of depth 2
|   |   |   |   |   |   |   |   |   |   |--- TRA_1 >  725.00
|   |   |   |   |   |   |   |   |   |   |   |--- truncated branch of depth 2
|   |   |   |   |   |   |   |   |   |--- BD_LINE_2_Sq_Ft_of_Main_Improve >  826.00
|   |   |   |   |   |   |   |   |   |   |--- MA_Localization_int <= 156600.50
|   |   |   |   |   |   |   |   |   |   |   |--- truncated branch of depth 2
|   |   |   |   |   |   |   |   |   |   |--- MA_Localization_int >  156600.50
|   |   |   |   |   |   |   |   |   |   |   |--- value: [286502.00]
|   |   |   |   |   |   |   |--- Cluster_Appraisal_Unit >  13.50
|   |   |   |   |   |   |   |   |--- Current_Improvement_Base_Year <= 1998.00
|   |   |   |   |   |   |   |   |   |--- Cluster_Appraisal_Unit <= 41.00
|   |   |   |   |   |   |   |   |   |   |--- TRA_1 <= 1531.50
|   |   |   |   |   |   |   |   |   |   |   |--- truncated branch of depth 2
|   |   |   |   |   |   |   |   |   |   |--- TRA_1 >  1531.50
|   |   |   |   |   |   |   |   |   |   |   |--- truncated branch of depth 2
|   |   |   |   |   |   |   |   |   |--- Cluster_Appraisal_Unit >  41.00
|   |   |   |   |   |   |   |   |   |   |--- BD_LINE_1_Yr_Built <= 1951.50
|   |   |   |   |   |   |   |   |   |   |   |--- truncated branch of depth 2
|   |   |   |   |   |   |   |   |   |   |--- BD_LINE_1_Yr_Built >  1951.50
|   |   |   |   |   |   |   |   |   |   |   |--- truncated branch of depth 2
|   |   |   |   |   |   |   |   |--- Current_Improvement_Base_Year >  1998.00
|   |   |   |   |   |   |   |   |   |--- BD_LINE_1_RCN_Main <= 9770.00
|   |   |   |   |   |   |   |   |   |   |--- IMPROVE_Curr_Value <= 64800.00
|   |   |   |   |   |   |   |   |   |   |   |--- truncated branch of depth 2
|   |   |   |   |   |   |   |   |   |   |--- IMPROVE_Curr_Value >  64800.00
|   |   |   |   |   |   |   |   |   |   |   |--- truncated branch of depth 2
|   |   |   |   |   |   |   |   |   |--- BD_LINE_1_RCN_Main >  9770.00
|   |   |   |   |   |   |   |   |   |   |--- Zoning_Code_int <= 2498.50
|   |   |   |   |   |   |   |   |   |   |   |--- value: [499004.00]
|   |   |   |   |   |   |   |   |   |   |--- Zoning_Code_int >  2498.50
|   |   |   |   |   |   |   |   |   |   |   |--- truncated branch of depth 2
|   |   |   |   |--- BD_LINE_1_Sq_Ft_of_Main_Improve >  887.00
|   |   |   |   |   |--- SA_Zip_Cde <= 917600000.00
|   |   |   |   |   |   |--- Cluster_Location <= 11.50
|   |   |   |   |   |   |   |--- Parcel_Area <= 14645.00
|   |   |   |   |   |   |   |   |--- BD_LINE_1_Yr_Built <= 1954.50
|   |   |   |   |   |   |   |   |   |--- BD_LINE_1_Sq_Ft_of_Main_Improve <= 2253.00
|   |   |   |   |   |   |   |   |   |   |--- SA_Localization_int <= 12310.50
|   |   |   |   |   |   |   |   |   |   |   |--- truncated branch of depth 2
|   |   |   |   |   |   |   |   |   |   |--- SA_Localization_int >  12310.50
|   |   |   |   |   |   |   |   |   |   |   |--- truncated branch of depth 2
|   |   |   |   |   |   |   |   |   |--- BD_LINE_1_Sq_Ft_of_Main_Improve >  2253.00
|   |   |   |   |   |   |   |   |   |   |--- SA_Zip_Cde <= 906820000.00
|   |   |   |   |   |   |   |   |   |   |   |--- value: [134501.00]
|   |   |   |   |   |   |   |   |   |   |--- SA_Zip_Cde >  906820000.00
|   |   |   |   |   |   |   |   |   |   |   |--- value: [330003.00]
|   |   |   |   |   |   |   |   |--- BD_LINE_1_Yr_Built >  1954.50
|   |   |   |   |   |   |   |   |   |--- Zoning_Code_int <= 7325.50
|   |   |   |   |   |   |   |   |   |   |--- Cluster_Appraisal_Unit <= 6.00
|   |   |   |   |   |   |   |   |   |   |   |--- truncated branch of depth 2
|   |   |   |   |   |   |   |   |   |   |--- Cluster_Appraisal_Unit >  6.00
|   |   |   |   |   |   |   |   |   |   |   |--- truncated branch of depth 2
|   |   |   |   |   |   |   |   |   |--- Zoning_Code_int >  7325.50
|   |   |   |   |   |   |   |   |   |   |--- Hmownr_Exempt_Value <= 3500.00
|   |   |   |   |   |   |   |   |   |   |   |--- truncated branch of depth 2
|   |   |   |   |   |   |   |   |   |   |--- Hmownr_Exempt_Value >  3500.00
|   |   |   |   |   |   |   |   |   |   |   |--- truncated branch of depth 2
|   |   |   |   |   |   |   |--- Parcel_Area >  14645.00
|   |   |   |   |   |   |   |   |--- BD_LINE_1_Quality__Class___Shap_int <= 1159.00
|   |   |   |   |   |   |   |   |   |--- LAND_Curr_Value <= 111306.00
|   |   |   |   |   |   |   |   |   |   |--- Current_Land_Base_Year <= 1988.00
|   |   |   |   |   |   |   |   |   |   |   |--- truncated branch of depth 2
|   |   |   |   |   |   |   |   |   |   |--- Current_Land_Base_Year >  1988.00
|   |   |   |   |   |   |   |   |   |   |   |--- truncated branch of depth 2
|   |   |   |   |   |   |   |   |   |--- LAND_Curr_Value >  111306.00
|   |   |   |   |   |   |   |   |   |   |--- BD_LINE_1_Sq_Ft_of_Main_Improve <= 1229.50
|   |   |   |   |   |   |   |   |   |   |   |--- truncated branch of depth 2
|   |   |   |   |   |   |   |   |   |   |--- BD_LINE_1_Sq_Ft_of_Main_Improve >  1229.50
|   |   |   |   |   |   |   |   |   |   |   |--- truncated branch of depth 2
|   |   |   |   |   |   |   |   |--- BD_LINE_1_Quality__Class___Shap_int >  1159.00
|   |   |   |   |   |   |   |   |   |--- Zoning_Code_int <= 7225.50
|   |   |   |   |   |   |   |   |   |   |--- Cluster_Appraisal_Unit <= 90.50
|   |   |   |   |   |   |   |   |   |   |   |--- truncated branch of depth 2
|   |   |   |   |   |   |   |   |   |   |--- Cluster_Appraisal_Unit >  90.50
|   |   |   |   |   |   |   |   |   |   |   |--- truncated branch of depth 2
|   |   |   |   |   |   |   |   |   |--- Zoning_Code_int >  7225.50
|   |   |   |   |   |   |   |   |   |   |--- Cluster_Appraisal_Unit <= 93.50
|   |   |   |   |   |   |   |   |   |   |   |--- truncated branch of depth 2
|   |   |   |   |   |   |   |   |   |   |--- Cluster_Appraisal_Unit >  93.50
|   |   |   |   |   |   |   |   |   |   |   |--- truncated branch of depth 2
|   |   |   |   |   |   |--- Cluster_Location >  11.50
|   |   |   |   |   |   |   |--- SA_Localization_int <= 66961.50
|   |   |   |   |   |   |   |   |--- Current_Improvement_Base_Year <= 2000.50
|   |   |   |   |   |   |   |   |   |--- CENTER_LAT <= 33.90
|   |   |   |   |   |   |   |   |   |   |--- BD_LINE_1_Quality__Class___Shap_int <= 231.50
|   |   |   |   |   |   |   |   |   |   |   |--- truncated branch of depth 2
|   |   |   |   |   |   |   |   |   |   |--- BD_LINE_1_Quality__Class___Shap_int >  231.50
|   |   |   |   |   |   |   |   |   |   |   |--- truncated branch of depth 2
|   |   |   |   |   |   |   |   |   |--- CENTER_LAT >  33.90
|   |   |   |   |   |   |   |   |   |   |--- LAND_Curr_Value <= 101208.00
|   |   |   |   |   |   |   |   |   |   |   |--- truncated branch of depth 2
|   |   |   |   |   |   |   |   |   |   |--- LAND_Curr_Value >  101208.00
|   |   |   |   |   |   |   |   |   |   |   |--- truncated branch of depth 2
|   |   |   |   |   |   |   |   |--- Current_Improvement_Base_Year >  2000.50
|   |   |   |   |   |   |   |   |   |--- BD_LINE_1_Sq_Ft_of_Main_Improve <= 2663.00
|   |   |   |   |   |   |   |   |   |   |--- BD_LINE_1_No_of_Bedrooms <= 2.50
|   |   |   |   |   |   |   |   |   |   |   |--- truncated branch of depth 2
|   |   |   |   |   |   |   |   |   |   |--- BD_LINE_1_No_of_Bedrooms >  2.50
|   |   |   |   |   |   |   |   |   |   |   |--- truncated branch of depth 2
|   |   |   |   |   |   |   |   |   |--- BD_LINE_1_Sq_Ft_of_Main_Improve >  2663.00
|   |   |   |   |   |   |   |   |   |   |--- IMPROVE_Curr_Value <= 111407.50
|   |   |   |   |   |   |   |   |   |   |   |--- value: [480004.00]
|   |   |   |   |   |   |   |   |   |   |--- IMPROVE_Curr_Value >  111407.50
|   |   |   |   |   |   |   |   |   |   |   |--- value: [445004.00]
|   |   |   |   |   |   |   |--- SA_Localization_int >  66961.50
|   |   |   |   |   |   |   |   |--- Current_Land_Base_Value <= 93150.00
|   |   |   |   |   |   |   |   |   |--- BD_LINE_1_Yr_Built <= 1904.00
|   |   |   |   |   |   |   |   |   |   |--- value: [15000.00]
|   |   |   |   |   |   |   |   |   |--- BD_LINE_1_Yr_Built >  1904.00
|   |   |   |   |   |   |   |   |   |   |--- Hmownr_Exempt_Value <= 3500.00
|   |   |   |   |   |   |   |   |   |   |   |--- truncated branch of depth 2
|   |   |   |   |   |   |   |   |   |   |--- Hmownr_Exempt_Value >  3500.00
|   |   |   |   |   |   |   |   |   |   |   |--- value: [45000.00]
|   |   |   |   |   |   |   |   |--- Current_Land_Base_Value >  93150.00
|   |   |   |   |   |   |   |   |   |--- SA_Zip_Cde <= 902440000.00
|   |   |   |   |   |   |   |   |   |   |--- BD_LINE_1_Unit_Cost_Main <= 585.00
|   |   |   |   |   |   |   |   |   |   |   |--- truncated branch of depth 2
|   |   |   |   |   |   |   |   |   |   |--- BD_LINE_1_Unit_Cost_Main >  585.00
|   |   |   |   |   |   |   |   |   |   |   |--- value: [250002.00]
|   |   |   |   |   |   |   |   |   |--- SA_Zip_Cde >  902440000.00
|   |   |   |   |   |   |   |   |   |   |--- CENTER_LON <= -118.32
|   |   |   |   |   |   |   |   |   |   |   |--- value: [495004.00]
|   |   |   |   |   |   |   |   |   |   |--- CENTER_LON >  -118.32
|   |   |   |   |   |   |   |   |   |   |   |--- truncated branch of depth 2
|   |   |   |   |   |--- SA_Zip_Cde >  917600000.00
|   |   |   |   |   |   |--- SA_Zip_Cde <= 917655008.00
|   |   |   |   |   |   |   |--- value: [25000.00]
|   |   |   |   |   |   |--- SA_Zip_Cde >  917655008.00
|   |   |   |   |   |   |   |--- Cluster_Location <= 3.00
|   |   |   |   |   |   |   |   |--- BD_LINE_1_Sq_Ft_of_Main_Improve <= 1506.50
|   |   |   |   |   |   |   |   |   |--- LAND_Curr_Value <= 72700.00
|   |   |   |   |   |   |   |   |   |   |--- value: [215002.00]
|   |   |   |   |   |   |   |   |   |--- LAND_Curr_Value >  72700.00
|   |   |   |   |   |   |   |   |   |   |--- TRA_1 <= 8868.00
|   |   |   |   |   |   |   |   |   |   |   |--- truncated branch of depth 2
|   |   |   |   |   |   |   |   |   |   |--- TRA_1 >  8868.00
|   |   |   |   |   |   |   |   |   |   |   |--- value: [154001.00]
|   |   |   |   |   |   |   |   |--- BD_LINE_1_Sq_Ft_of_Main_Improve >  1506.50
|   |   |   |   |   |   |   |   |   |--- IMPROVE_Curr_Value <= 172945.50
|   |   |   |   |   |   |   |   |   |   |--- CENTER_LON <= -118.15
|   |   |   |   |   |   |   |   |   |   |   |--- truncated branch of depth 2
|   |   |   |   |   |   |   |   |   |   |--- CENTER_LON >  -118.15
|   |   |   |   |   |   |   |   |   |   |   |--- truncated branch of depth 2
|   |   |   |   |   |   |   |   |   |--- IMPROVE_Curr_Value >  172945.50
|   |   |   |   |   |   |   |   |   |   |--- Current_Improvement_Base_Value <= 183014.00
|   |   |   |   |   |   |   |   |   |   |   |--- truncated branch of depth 2
|   |   |   |   |   |   |   |   |   |   |--- Current_Improvement_Base_Value >  183014.00
|   |   |   |   |   |   |   |   |   |   |   |--- truncated branch of depth 2
|   |   |   |   |   |   |   |--- Cluster_Location >  3.00
|   |   |   |   |   |   |   |   |--- BD_LINE_1_No_of_Bedrooms <= 4.50
|   |   |   |   |   |   |   |   |   |--- BD_LINE_1_Sq_Ft_of_Main_Improve <= 1604.00
|   |   |   |   |   |   |   |   |   |   |--- CENTER_LON <= -117.92
|   |   |   |   |   |   |   |   |   |   |   |--- truncated branch of depth 2
|   |   |   |   |   |   |   |   |   |   |--- CENTER_LON >  -117.92
|   |   |   |   |   |   |   |   |   |   |   |--- truncated branch of depth 2
|   |   |   |   |   |   |   |   |   |--- BD_LINE_1_Sq_Ft_of_Main_Improve >  1604.00
|   |   |   |   |   |   |   |   |   |   |--- Current_Improvement_Base_Value <= 135100.00
|   |   |   |   |   |   |   |   |   |   |   |--- truncated branch of depth 2
|   |   |   |   |   |   |   |   |   |   |--- Current_Improvement_Base_Value >  135100.00
|   |   |   |   |   |   |   |   |   |   |   |--- truncated branch of depth 2
|   |   |   |   |   |   |   |   |--- BD_LINE_1_No_of_Bedrooms >  4.50
|   |   |   |   |   |   |   |   |   |--- CENTER_LAT <= 34.04
|   |   |   |   |   |   |   |   |   |   |--- value: [210002.00]
|   |   |   |   |   |   |   |   |   |--- CENTER_LAT >  34.04
|   |   |   |   |   |   |   |   |   |   |--- MA_Localization_int <= 46330.50
|   |   |   |   |   |   |   |   |   |   |   |--- value: [55000.00]
|   |   |   |   |   |   |   |   |   |   |--- MA_Localization_int >  46330.50
|   |   |   |   |   |   |   |   |   |   |   |--- value: [100001.00]
|   |   |   |--- Current_Land_Base_Year >  2014.50
|   |   |   |   |--- Current_Improvement_Base_Value <= 121575.00
|   |   |   |   |   |--- Current_Land_Base_Value <= 100750.00
|   |   |   |   |   |   |--- TRA_1 <= 13007.50
|   |   |   |   |   |   |   |--- BD_LINE_1_Year_Changed <= 1973.50
|   |   |   |   |   |   |   |   |--- CENTER_LAT <= 34.25
|   |   |   |   |   |   |   |   |   |--- Cluster_Type <= 3.00
|   |   |   |   |   |   |   |   |   |   |--- Current_Land_Base_Value <= 91043.50
|   |   |   |   |   |   |   |   |   |   |   |--- truncated branch of depth 2
|   |   |   |   |   |   |   |   |   |   |--- Current_Land_Base_Value >  91043.50
|   |   |   |   |   |   |   |   |   |   |   |--- truncated branch of depth 2
|   |   |   |   |   |   |   |   |   |--- Cluster_Type >  3.00
|   |   |   |   |   |   |   |   |   |   |--- Parcel_Area <= 35267.00
|   |   |   |   |   |   |   |   |   |   |   |--- truncated branch of depth 2
|   |   |   |   |   |   |   |   |   |   |--- Parcel_Area >  35267.00
|   |   |   |   |   |   |   |   |   |   |   |--- truncated branch of depth 2
|   |   |   |   |   |   |   |   |--- CENTER_LAT >  34.25
|   |   |   |   |   |   |   |   |   |--- Parcel_Area <= 3174.50
|   |   |   |   |   |   |   |   |   |   |--- value: [498004.00]
|   |   |   |   |   |   |   |   |   |--- Parcel_Area >  3174.50
|   |   |   |   |   |   |   |   |   |   |--- Zoning_Code_int <= 8038.50
|   |   |   |   |   |   |   |   |   |   |   |--- truncated branch of depth 2
|   |   |   |   |   |   |   |   |   |   |--- Zoning_Code_int >  8038.50
|   |   |   |   |   |   |   |   |   |   |   |--- truncated branch of depth 2
|   |   |   |   |   |   |   |--- BD_LINE_1_Year_Changed >  1973.50
|   |   |   |   |   |   |   |   |--- Current_Improvement_Base_Value <= 6250.00
|   |   |   |   |   |   |   |   |   |--- Residential <= 0.50
|   |   |   |   |   |   |   |   |   |   |--- value: [405004.00]
|   |   |   |   |   |   |   |   |   |--- Residential >  0.50
|   |   |   |   |   |   |   |   |   |   |--- value: [480004.00]
|   |   |   |   |   |   |   |   |--- Current_Improvement_Base_Value >  6250.00
|   |   |   |   |   |   |   |   |   |--- IMPROVE_Curr_Value <= 70737.00
|   |   |   |   |   |   |   |   |   |   |--- Parcel_Area <= 3176.00
|   |   |   |   |   |   |   |   |   |   |   |--- truncated branch of depth 2
|   |   |   |   |   |   |   |   |   |   |--- Parcel_Area >  3176.00
|   |   |   |   |   |   |   |   |   |   |   |--- truncated branch of depth 2
|   |   |   |   |   |   |   |   |   |--- IMPROVE_Curr_Value >  70737.00
|   |   |   |   |   |   |   |   |   |   |--- BD_LINE_2_Yr_Built <= 961.50
|   |   |   |   |   |   |   |   |   |   |   |--- truncated branch of depth 2
|   |   |   |   |   |   |   |   |   |   |--- BD_LINE_2_Yr_Built >  961.50
|   |   |   |   |   |   |   |   |   |   |   |--- value: [360003.00]
|   |   |   |   |   |   |--- TRA_1 >  13007.50
|   |   |   |   |   |   |   |--- CENTER_LON <= -118.11
|   |   |   |   |   |   |   |   |--- MA_Localization_int <= 89124.00
|   |   |   |   |   |   |   |   |   |--- Simple_Zone_int <= 16.50
|   |   |   |   |   |   |   |   |   |   |--- value: [77500.00]
|   |   |   |   |   |   |   |   |   |--- Simple_Zone_int >  16.50
|   |   |   |   |   |   |   |   |   |   |--- value: [100001.00]
|   |   |   |   |   |   |   |   |--- MA_Localization_int >  89124.00
|   |   |   |   |   |   |   |   |   |--- BD_LINE_1_No_of_Units <= 0.50
|   |   |   |   |   |   |   |   |   |   |--- value: [187501.00]
|   |   |   |   |   |   |   |   |   |--- BD_LINE_1_No_of_Units >  0.50
|   |   |   |   |   |   |   |   |   |   |--- value: [185001.00]
|   |   |   |   |   |   |   |--- CENTER_LON >  -118.11
|   |   |   |   |   |   |   |   |--- IMPROVE_Curr_Value <= 60690.00
|   |   |   |   |   |   |   |   |   |--- Parcel_Area <= 27398.50
|   |   |   |   |   |   |   |   |   |   |--- CENTER_LAT <= 34.03
|   |   |   |   |   |   |   |   |   |   |   |--- value: [460004.00]
|   |   |   |   |   |   |   |   |   |   |--- CENTER_LAT >  34.03
|   |   |   |   |   |   |   |   |   |   |   |--- value: [461754.00]
|   |   |   |   |   |   |   |   |   |--- Parcel_Area >  27398.50
|   |   |   |   |   |   |   |   |   |   |--- MA_Localization_int <= 98034.00
|   |   |   |   |   |   |   |   |   |   |   |--- value: [437504.00]
|   |   |   |   |   |   |   |   |   |   |--- MA_Localization_int >  98034.00
|   |   |   |   |   |   |   |   |   |   |   |--- value: [445504.00]
|   |   |   |   |   |   |   |   |--- IMPROVE_Curr_Value >  60690.00
|   |   |   |   |   |   |   |   |   |--- SA_Localization_int <= 62449.50
|   |   |   |   |   |   |   |   |   |   |--- value: [386503.00]
|   |   |   |   |   |   |   |   |   |--- SA_Localization_int >  62449.50
|   |   |   |   |   |   |   |   |   |   |--- value: [373503.00]
|   |   |   |   |   |--- Current_Land_Base_Value >  100750.00
|   |   |   |   |   |   |--- Current_Improvement_Base_Value <= 75202.00
|   |   |   |   |   |   |   |--- Cluster_Location <= 19.00
|   |   |   |   |   |   |   |   |--- BD_LINE_1_Sq_Ft_of_Main_Improve <= 619.00
|   |   |   |   |   |   |   |   |   |--- Parcel_Area <= 2176.00
|   |   |   |   |   |   |   |   |   |   |--- Cluster_Appraisal_Unit <= 74.50
|   |   |   |   |   |   |   |   |   |   |   |--- truncated branch of depth 2
|   |   |   |   |   |   |   |   |   |   |--- Cluster_Appraisal_Unit >  74.50
|   |   |   |   |   |   |   |   |   |   |   |--- truncated branch of depth 2
|   |   |   |   |   |   |   |   |   |--- Parcel_Area >  2176.00
|   |   |   |   |   |   |   |   |   |   |--- Cluster_Appraisal_Unit <= 70.50
|   |   |   |   |   |   |   |   |   |   |   |--- truncated branch of depth 2
|   |   |   |   |   |   |   |   |   |   |--- Cluster_Appraisal_Unit >  70.50
|   |   |   |   |   |   |   |   |   |   |   |--- truncated branch of depth 2
|   |   |   |   |   |   |   |   |--- BD_LINE_1_Sq_Ft_of_Main_Improve >  619.00
|   |   |   |   |   |   |   |   |   |--- LAND_Curr_Value <= 197865.00
|   |   |   |   |   |   |   |   |   |   |--- Current_Land_Base_Value <= 139100.00
|   |   |   |   |   |   |   |   |   |   |   |--- truncated branch of depth 2
|   |   |   |   |   |   |   |   |   |   |--- Current_Land_Base_Value >  139100.00
|   |   |   |   |   |   |   |   |   |   |   |--- truncated branch of depth 2
|   |   |   |   |   |   |   |   |   |--- LAND_Curr_Value >  197865.00
|   |   |   |   |   |   |   |   |   |   |--- BD_LINE_1_Sq_Ft_of_Main_Improve <= 1020.50
|   |   |   |   |   |   |   |   |   |   |   |--- value: [42500.00]
|   |   |   |   |   |   |   |   |   |   |--- BD_LINE_1_Sq_Ft_of_Main_Improve >  1020.50
|   |   |   |   |   |   |   |   |   |   |   |--- value: [50000.00]
|   |   |   |   |   |   |   |--- Cluster_Location >  19.00
|   |   |   |   |   |   |   |   |--- Parcel_Area <= 3064.50
|   |   |   |   |   |   |   |   |   |--- Simple_Zone_int <= 5.50
|   |   |   |   |   |   |   |   |   |   |--- SA_Localization_int <= 15621.50
|   |   |   |   |   |   |   |   |   |   |   |--- truncated branch of depth 2
|   |   |   |   |   |   |   |   |   |   |--- SA_Localization_int >  15621.50
|   |   |   |   |   |   |   |   |   |   |   |--- truncated branch of depth 2
|   |   |   |   |   |   |   |   |   |--- Simple_Zone_int >  5.50
|   |   |   |   |   |   |   |   |   |   |--- CENTER_LON <= -118.25
|   |   |   |   |   |   |   |   |   |   |   |--- value: [105001.00]
|   |   |   |   |   |   |   |   |   |   |--- CENTER_LON >  -118.25
|   |   |   |   |   |   |   |   |   |   |   |--- truncated branch of depth 2
|   |   |   |   |   |   |   |   |--- Parcel_Area >  3064.50
|   |   |   |   |   |   |   |   |   |--- LAND_Curr_Value <= 123333.00
|   |   |   |   |   |   |   |   |   |   |--- Zoning_Code_int <= 4759.00
|   |   |   |   |   |   |   |   |   |   |   |--- truncated branch of depth 2
|   |   |   |   |   |   |   |   |   |   |--- Zoning_Code_int >  4759.00
|   |   |   |   |   |   |   |   |   |   |   |--- truncated branch of depth 2
|   |   |   |   |   |   |   |   |   |--- LAND_Curr_Value >  123333.00
|   |   |   |   |   |   |   |   |   |   |--- MA_Localization_int <= 162524.00
|   |   |   |   |   |   |   |   |   |   |   |--- truncated branch of depth 2
|   |   |   |   |   |   |   |   |   |   |--- MA_Localization_int >  162524.00
|   |   |   |   |   |   |   |   |   |   |   |--- value: [430004.00]
|   |   |   |   |   |   |--- Current_Improvement_Base_Value >  75202.00
|   |   |   |   |   |   |   |--- Current_Land_Base_Value <= 155050.00
|   |   |   |   |   |   |   |   |--- LAND_Curr_Value <= 163387.00
|   |   |   |   |   |   |   |   |   |--- LAND_Curr_Value <= 130530.00
|   |   |   |   |   |   |   |   |   |   |--- IMPROVE_Curr_Value <= 93978.50
|   |   |   |   |   |   |   |   |   |   |   |--- truncated branch of depth 2
|   |   |   |   |   |   |   |   |   |   |--- IMPROVE_Curr_Value >  93978.50
|   |   |   |   |   |   |   |   |   |   |   |--- truncated branch of depth 2
|   |   |   |   |   |   |   |   |   |--- LAND_Curr_Value >  130530.00
|   |   |   |   |   |   |   |   |   |   |--- BD_LINE_1_Sq_Ft_of_Main_Improve <= 1407.00
|   |   |   |   |   |   |   |   |   |   |   |--- truncated branch of depth 2
|   |   |   |   |   |   |   |   |   |   |--- BD_LINE_1_Sq_Ft_of_Main_Improve >  1407.00
|   |   |   |   |   |   |   |   |   |   |   |--- truncated branch of depth 2
|   |   |   |   |   |   |   |   |--- LAND_Curr_Value >  163387.00
|   |   |   |   |   |   |   |   |   |--- BD_LINE_1_Yr_Built <= 1926.00
|   |   |   |   |   |   |   |   |   |   |--- value: [15000.00]
|   |   |   |   |   |   |   |   |   |--- BD_LINE_1_Yr_Built >  1926.00
|   |   |   |   |   |   |   |   |   |   |--- value: [120001.00]
|   |   |   |   |   |   |   |--- Current_Land_Base_Value >  155050.00
|   |   |   |   |   |   |   |   |--- LAND_Curr_Value <= 191268.50
|   |   |   |   |   |   |   |   |   |--- Current_Improvement_Base_Value <= 110150.00
|   |   |   |   |   |   |   |   |   |   |--- IMPROVE_Curr_Value <= 76460.50
|   |   |   |   |   |   |   |   |   |   |   |--- truncated branch of depth 2
|   |   |   |   |   |   |   |   |   |   |--- IMPROVE_Curr_Value >  76460.50
|   |   |   |   |   |   |   |   |   |   |   |--- truncated branch of depth 2
|   |   |   |   |   |   |   |   |   |--- Current_Improvement_Base_Value >  110150.00
|   |   |   |   |   |   |   |   |   |   |--- CENTER_LAT <= 34.29
|   |   |   |   |   |   |   |   |   |   |   |--- truncated branch of depth 2
|   |   |   |   |   |   |   |   |   |   |--- CENTER_LAT >  34.29
|   |   |   |   |   |   |   |   |   |   |   |--- value: [394003.00]
|   |   |   |   |   |   |   |   |--- LAND_Curr_Value >  191268.50
|   |   |   |   |   |   |   |   |   |--- SA_Localization_int <= 70973.50
|   |   |   |   |   |   |   |   |   |   |--- CENTER_LAT <= 33.95
|   |   |   |   |   |   |   |   |   |   |   |--- truncated branch of depth 2
|   |   |   |   |   |   |   |   |   |   |--- CENTER_LAT >  33.95
|   |   |   |   |   |   |   |   |   |   |   |--- truncated branch of depth 2
|   |   |   |   |   |   |   |   |   |--- SA_Localization_int >  70973.50
|   |   |   |   |   |   |   |   |   |   |--- City_int <= 152.00
|   |   |   |   |   |   |   |   |   |   |   |--- value: [349003.00]
|   |   |   |   |   |   |   |   |   |   |--- City_int >  152.00
|   |   |   |   |   |   |   |   |   |   |   |--- value: [195001.00]
|   |   |   |   |--- Current_Improvement_Base_Value >  121575.00
|   |   |   |   |   |--- Current_Land_Base_Value <= 126850.00
|   |   |   |   |   |   |--- Current_Improvement_Base_Value <= 173650.00
|   |   |   |   |   |   |   |--- IMPROVE_Curr_Value <= 180092.00
|   |   |   |   |   |   |   |   |--- SA_Localization_int <= 94.00
|   |   |   |   |   |   |   |   |   |--- IMPROVE_Curr_Value <= 147900.00
|   |   |   |   |   |   |   |   |   |   |--- Current_Improvement_Base_Value <= 135000.00
|   |   |   |   |   |   |   |   |   |   |   |--- truncated branch of depth 2
|   |   |   |   |   |   |   |   |   |   |--- Current_Improvement_Base_Value >  135000.00
|   |   |   |   |   |   |   |   |   |   |   |--- truncated branch of depth 2
|   |   |   |   |   |   |   |   |   |--- IMPROVE_Curr_Value >  147900.00
|   |   |   |   |   |   |   |   |   |   |--- value: [445670.67]
|   |   |   |   |   |   |   |   |--- SA_Localization_int >  94.00
|   |   |   |   |   |   |   |   |   |--- Current_Land_Base_Value <= 102850.00
|   |   |   |   |   |   |   |   |   |   |--- Current_Improvement_Base_Value <= 150800.00
|   |   |   |   |   |   |   |   |   |   |   |--- truncated branch of depth 2
|   |   |   |   |   |   |   |   |   |   |--- Current_Improvement_Base_Value >  150800.00
|   |   |   |   |   |   |   |   |   |   |   |--- truncated branch of depth 2
|   |   |   |   |   |   |   |   |   |--- Current_Land_Base_Value >  102850.00
|   |   |   |   |   |   |   |   |   |   |--- Current_Improvement_Base_Value <= 142800.00
|   |   |   |   |   |   |   |   |   |   |   |--- truncated branch of depth 2
|   |   |   |   |   |   |   |   |   |   |--- Current_Improvement_Base_Value >  142800.00
|   |   |   |   |   |   |   |   |   |   |   |--- truncated branch of depth 2
|   |   |   |   |   |   |   |--- IMPROVE_Curr_Value >  180092.00
|   |   |   |   |   |   |   |   |--- SA_Localization_int <= 27541.50
|   |   |   |   |   |   |   |   |   |--- value: [142501.00]
|   |   |   |   |   |   |   |   |--- SA_Localization_int >  27541.50
|   |   |   |   |   |   |   |   |   |--- LAND_Curr_Value <= 116368.50
|   |   |   |   |   |   |   |   |   |   |--- Cluster_Location <= 15.00
|   |   |   |   |   |   |   |   |   |   |   |--- value: [29500.00]
|   |   |   |   |   |   |   |   |   |   |--- Cluster_Location >  15.00
|   |   |   |   |   |   |   |   |   |   |   |--- value: [15000.00]
|   |   |   |   |   |   |   |   |   |--- LAND_Curr_Value >  116368.50
|   |   |   |   |   |   |   |   |   |   |--- City_int <= 208.00
|   |   |   |   |   |   |   |   |   |   |   |--- truncated branch of depth 2
|   |   |   |   |   |   |   |   |   |   |--- City_int >  208.00
|   |   |   |   |   |   |   |   |   |   |   |--- value: [54000.00]
|   |   |   |   |   |   |--- Current_Improvement_Base_Value >  173650.00
|   |   |   |   |   |   |   |--- LAND_Curr_Value <= 101690.50
|   |   |   |   |   |   |   |   |--- IMPROVE_Curr_Value <= 216568.50
|   |   |   |   |   |   |   |   |   |--- LAND_Curr_Value <= 69284.00
|   |   |   |   |   |   |   |   |   |   |--- City_int <= 233.00
|   |   |   |   |   |   |   |   |   |   |   |--- truncated branch of depth 2
|   |   |   |   |   |   |   |   |   |   |--- City_int >  233.00
|   |   |   |   |   |   |   |   |   |   |   |--- value: [150001.00]
|   |   |   |   |   |   |   |   |   |--- LAND_Curr_Value >  69284.00
|   |   |   |   |   |   |   |   |   |   |--- MA_Localization_int <= 163929.00
|   |   |   |   |   |   |   |   |   |   |   |--- truncated branch of depth 2
|   |   |   |   |   |   |   |   |   |   |--- MA_Localization_int >  163929.00
|   |   |   |   |   |   |   |   |   |   |   |--- value: [190001.00]
|   |   |   |   |   |   |   |   |--- IMPROVE_Curr_Value >  216568.50
|   |   |   |   |   |   |   |   |   |--- City_int <= 191.00
|   |   |   |   |   |   |   |   |   |   |--- IMPROVE_Curr_Value <= 217155.00
|   |   |   |   |   |   |   |   |   |   |   |--- value: [255002.00]
|   |   |   |   |   |   |   |   |   |   |--- IMPROVE_Curr_Value >  217155.00
|   |   |   |   |   |   |   |   |   |   |   |--- value: [290002.00]
|   |   |   |   |   |   |   |   |   |--- City_int >  191.00
|   |   |   |   |   |   |   |   |   |   |--- value: [59500.00]
|   |   |   |   |   |   |   |--- LAND_Curr_Value >  101690.50
|   |   |   |   |   |   |   |   |--- LAND_Curr_Value <= 132025.00
|   |   |   |   |   |   |   |   |   |--- BD_LINE_1_Sq_Ft_of_Main_Improve <= 3457.00
|   |   |   |   |   |   |   |   |   |   |--- Current_Improvement_Base_Value <= 189850.00
|   |   |   |   |   |   |   |   |   |   |   |--- truncated branch of depth 2
|   |   |   |   |   |   |   |   |   |   |--- Current_Improvement_Base_Value >  189850.00
|   |   |   |   |   |   |   |   |   |   |   |--- truncated branch of depth 2
|   |   |   |   |   |   |   |   |   |--- BD_LINE_1_Sq_Ft_of_Main_Improve >  3457.00
|   |   |   |   |   |   |   |   |   |   |--- value: [465004.00]
|   |   |   |   |   |   |   |   |--- LAND_Curr_Value >  132025.00
|   |   |   |   |   |   |   |   |   |--- value: [135001.00]
|   |   |   |   |   |--- Current_Land_Base_Value >  126850.00
|   |   |   |   |   |   |--- Current_Improvement_Base_Value <= 173200.00
|   |   |   |   |   |   |   |--- Current_Land_Base_Value <= 162850.00
|   |   |   |   |   |   |   |   |--- LAND_Curr_Value <= 173049.50
|   |   |   |   |   |   |   |   |   |--- Current_Improvement_Base_Value <= 143950.00
|   |   |   |   |   |   |   |   |   |   |--- Current_Land_Base_Value <= 127300.00
|   |   |   |   |   |   |   |   |   |   |   |--- value: [395003.00]
|   |   |   |   |   |   |   |   |   |   |--- Current_Land_Base_Value >  127300.00
|   |   |   |   |   |   |   |   |   |   |   |--- truncated branch of depth 2
|   |   |   |   |   |   |   |   |   |--- Current_Improvement_Base_Value >  143950.00
|   |   |   |   |   |   |   |   |   |   |--- BD_LINE_3_Yr_Built <= 1958.50
|   |   |   |   |   |   |   |   |   |   |   |--- truncated branch of depth 2
|   |   |   |   |   |   |   |   |   |   |--- BD_LINE_3_Yr_Built >  1958.50
|   |   |   |   |   |   |   |   |   |   |   |--- value: [135001.00]
|   |   |   |   |   |   |   |   |--- LAND_Curr_Value >  173049.50
|   |   |   |   |   |   |   |   |   |--- BD_LINE_1_No_of_Bedrooms <= 5.50
|   |   |   |   |   |   |   |   |   |   |--- BD_LINE_2_No_of_Baths <= 1.00
|   |   |   |   |   |   |   |   |   |   |   |--- truncated branch of depth 2
|   |   |   |   |   |   |   |   |   |   |--- BD_LINE_2_No_of_Baths >  1.00
|   |   |   |   |   |   |   |   |   |   |   |--- value: [148001.00]
|   |   |   |   |   |   |   |   |   |--- BD_LINE_1_No_of_Bedrooms >  5.50
|   |   |   |   |   |   |   |   |   |   |--- value: [200002.00]
|   |   |   |   |   |   |   |--- Current_Land_Base_Value >  162850.00
|   |   |   |   |   |   |   |   |--- Current_Improvement_Base_Value <= 139430.00
|   |   |   |   |   |   |   |   |   |--- Current_Land_Base_Value <= 171550.00
|   |   |   |   |   |   |   |   |   |   |--- LAND_Curr_Value <= 178381.50
|   |   |   |   |   |   |   |   |   |   |   |--- truncated branch of depth 2
|   |   |   |   |   |   |   |   |   |   |--- LAND_Curr_Value >  178381.50
|   |   |   |   |   |   |   |   |   |   |   |--- truncated branch of depth 2
|   |   |   |   |   |   |   |   |   |--- Current_Land_Base_Value >  171550.00
|   |   |   |   |   |   |   |   |   |   |--- LAND_Curr_Value <= 190469.00
|   |   |   |   |   |   |   |   |   |   |   |--- truncated branch of depth 2
|   |   |   |   |   |   |   |   |   |   |--- LAND_Curr_Value >  190469.00
|   |   |   |   |   |   |   |   |   |   |   |--- value: [222002.00]
|   |   |   |   |   |   |   |   |--- Current_Improvement_Base_Value >  139430.00
|   |   |   |   |   |   |   |   |   |--- Current_Improvement_Base_Value <= 139780.00
|   |   |   |   |   |   |   |   |   |   |--- value: [450004.00]
|   |   |   |   |   |   |   |   |   |--- Current_Improvement_Base_Value >  139780.00
|   |   |   |   |   |   |   |   |   |   |--- BD_LINE_2_Sq_Ft_of_Main_Improve <= 1899.50
|   |   |   |   |   |   |   |   |   |   |   |--- truncated branch of depth 2
|   |   |   |   |   |   |   |   |   |   |--- BD_LINE_2_Sq_Ft_of_Main_Improve >  1899.50
|   |   |   |   |   |   |   |   |   |   |   |--- value: [495004.00]
|   |   |   |   |   |   |--- Current_Improvement_Base_Value >  173200.00
|   |   |   |   |   |   |   |--- Current_Land_Base_Value <= 150350.00
|   |   |   |   |   |   |   |   |--- Current_Improvement_Base_Value <= 196350.00
|   |   |   |   |   |   |   |   |   |--- BD_LINE_1_Unit_Cost_Main <= 6280.00
|   |   |   |   |   |   |   |   |   |   |--- CENTER_LAT <= 33.74
|   |   |   |   |   |   |   |   |   |   |   |--- value: [247502.00]
|   |   |   |   |   |   |   |   |   |   |--- CENTER_LAT >  33.74
|   |   |   |   |   |   |   |   |   |   |   |--- truncated branch of depth 2
|   |   |   |   |   |   |   |   |   |--- BD_LINE_1_Unit_Cost_Main >  6280.00
|   |   |   |   |   |   |   |   |   |   |--- Residential <= 0.50
|   |   |   |   |   |   |   |   |   |   |   |--- value: [435004.00]
|   |   |   |   |   |   |   |   |   |   |--- Residential >  0.50
|   |   |   |   |   |   |   |   |   |   |   |--- truncated branch of depth 2
|   |   |   |   |   |   |   |   |--- Current_Improvement_Base_Value >  196350.00
|   |   |   |   |   |   |   |   |   |--- LAND_Curr_Value <= 150531.00
|   |   |   |   |   |   |   |   |   |   |--- TRA_1 <= 42.00
|   |   |   |   |   |   |   |   |   |   |   |--- truncated branch of depth 2
|   |   |   |   |   |   |   |   |   |   |--- TRA_1 >  42.00
|   |   |   |   |   |   |   |   |   |   |   |--- truncated branch of depth 2
|   |   |   |   |   |   |   |   |   |--- LAND_Curr_Value >  150531.00
|   |   |   |   |   |   |   |   |   |   |--- Current_Improvement_Base_Value <= 204050.00
|   |   |   |   |   |   |   |   |   |   |   |--- truncated branch of depth 2
|   |   |   |   |   |   |   |   |   |   |--- Current_Improvement_Base_Value >  204050.00
|   |   |   |   |   |   |   |   |   |   |   |--- truncated branch of depth 2
|   |   |   |   |   |   |   |--- Current_Land_Base_Value >  150350.00
|   |   |   |   |   |   |   |   |--- Cluster_Appraisal_Unit <= 4.00
|   |   |   |   |   |   |   |   |   |--- value: [85500.00]
|   |   |   |   |   |   |   |   |--- Cluster_Appraisal_Unit >  4.00
|   |   |   |   |   |   |   |   |   |--- BD_LINE_2_Sq_Ft_of_Main_Improve <= 937.50
|   |   |   |   |   |   |   |   |   |   |--- IMPROVE_Curr_Value <= 200011.00
|   |   |   |   |   |   |   |   |   |   |   |--- truncated branch of depth 2
|   |   |   |   |   |   |   |   |   |   |--- IMPROVE_Curr_Value >  200011.00
|   |   |   |   |   |   |   |   |   |   |   |--- truncated branch of depth 2
|   |   |   |   |   |   |   |   |   |--- BD_LINE_2_Sq_Ft_of_Main_Improve >  937.50
|   |   |   |   |   |   |   |   |   |   |--- BD_LINE_1_Quality__Class___Shap_int <= 673.00
|   |   |   |   |   |   |   |   |   |   |   |--- truncated branch of depth 2
|   |   |   |   |   |   |   |   |   |   |--- BD_LINE_1_Quality__Class___Shap_int >  673.00
|   |   |   |   |   |   |   |   |   |   |   |--- value: [128001.00]
|   |--- Current_Improvement_Base_Value >  212050.00
|   |   |--- Current_Land_Base_Value <= 88850.00
|   |   |   |--- IMPROVE_Curr_Value <= 279649.50
|   |   |   |   |--- Current_Improvement_Base_Value <= 241150.00
|   |   |   |   |   |--- Current_Improvement_Base_Year <= 2014.50
|   |   |   |   |   |   |--- SA_Zip_Cde <= 935435008.00
|   |   |   |   |   |   |   |--- SA_Zip_Cde <= 913830016.00
|   |   |   |   |   |   |   |   |--- SA_Direction_int <= 1.50
|   |   |   |   |   |   |   |   |   |--- SA_Zip_Cde <= 907144992.00
|   |   |   |   |   |   |   |   |   |   |--- Current_Land_Base_Value <= 58400.00
|   |   |   |   |   |   |   |   |   |   |   |--- truncated branch of depth 2
|   |   |   |   |   |   |   |   |   |   |--- Current_Land_Base_Value >  58400.00
|   |   |   |   |   |   |   |   |   |   |   |--- truncated branch of depth 2
|   |   |   |   |   |   |   |   |   |--- SA_Zip_Cde >  907144992.00
|   |   |   |   |   |   |   |   |   |   |--- IMPROVE_Curr_Value <= 237172.50
|   |   |   |   |   |   |   |   |   |   |   |--- value: [419004.00]
|   |   |   |   |   |   |   |   |   |   |--- IMPROVE_Curr_Value >  237172.50
|   |   |   |   |   |   |   |   |   |   |   |--- truncated branch of depth 2
|   |   |   |   |   |   |   |   |--- SA_Direction_int >  1.50
|   |   |   |   |   |   |   |   |   |--- MA_Localization_int <= 115183.00
|   |   |   |   |   |   |   |   |   |   |--- value: [490004.00]
|   |   |   |   |   |   |   |   |   |--- MA_Localization_int >  115183.00
|   |   |   |   |   |   |   |   |   |   |--- value: [467004.00]
|   |   |   |   |   |   |   |--- SA_Zip_Cde >  913830016.00
|   |   |   |   |   |   |   |   |--- BD_LINE_1_Yr_Built <= 2005.50
|   |   |   |   |   |   |   |   |   |--- MA_Localization_int <= 94570.50
|   |   |   |   |   |   |   |   |   |   |--- Parcel_Area <= 9610.50
|   |   |   |   |   |   |   |   |   |   |   |--- value: [355003.00]
|   |   |   |   |   |   |   |   |   |   |--- Parcel_Area >  9610.50
|   |   |   |   |   |   |   |   |   |   |   |--- value: [350003.00]
|   |   |   |   |   |   |   |   |   |--- MA_Localization_int >  94570.50
|   |   |   |   |   |   |   |   |   |   |--- TRA_1 <= 2866.50
|   |   |   |   |   |   |   |   |   |   |   |--- value: [335003.00]
|   |   |   |   |   |   |   |   |   |   |--- TRA_1 >  2866.50
|   |   |   |   |   |   |   |   |   |   |   |--- value: [333503.00]
|   |   |   |   |   |   |   |   |--- BD_LINE_1_Yr_Built >  2005.50
|   |   |   |   |   |   |   |   |   |--- CENTER_LAT <= 34.67
|   |   |   |   |   |   |   |   |   |   |--- Parcel_Area <= 15602.50
|   |   |   |   |   |   |   |   |   |   |   |--- value: [430004.00]
|   |   |   |   |   |   |   |   |   |   |--- Parcel_Area >  15602.50
|   |   |   |   |   |   |   |   |   |   |   |--- value: [415004.00]
|   |   |   |   |   |   |   |   |   |--- CENTER_LAT >  34.67
|   |   |   |   |   |   |   |   |   |   |--- value: [365003.00]
|   |   |   |   |   |   |--- SA_Zip_Cde >  935435008.00
|   |   |   |   |   |   |   |--- CENTER_LON <= -118.21
|   |   |   |   |   |   |   |   |--- value: [200002.00]
|   |   |   |   |   |   |   |--- CENTER_LON >  -118.21
|   |   |   |   |   |   |   |   |--- Current_Land_Base_Value <= 74757.00
|   |   |   |   |   |   |   |   |   |--- value: [318003.00]
|   |   |   |   |   |   |   |   |--- Current_Land_Base_Value >  74757.00
|   |   |   |   |   |   |   |   |   |--- value: [296002.00]
|   |   |   |   |   |--- Current_Improvement_Base_Year >  2014.50
|   |   |   |   |   |   |--- Current_Improvement_Base_Value <= 228550.00
|   |   |   |   |   |   |   |--- Current_Land_Base_Value <= 55950.00
|   |   |   |   |   |   |   |   |--- Landlord_Reappraisal_Year <= 2016.50
|   |   |   |   |   |   |   |   |   |--- Current_Land_Base_Value <= 54650.00
|   |   |   |   |   |   |   |   |   |   |--- Current_Improvement_Base_Value <= 220500.00
|   |   |   |   |   |   |   |   |   |   |   |--- truncated branch of depth 2
|   |   |   |   |   |   |   |   |   |   |--- Current_Improvement_Base_Value >  220500.00
|   |   |   |   |   |   |   |   |   |   |   |--- truncated branch of depth 2
|   |   |   |   |   |   |   |   |   |--- Current_Land_Base_Value >  54650.00
|   |   |   |   |   |   |   |   |   |   |--- Current_Improvement_Base_Value <= 221800.00
|   |   |   |   |   |   |   |   |   |   |   |--- truncated branch of depth 2
|   |   |   |   |   |   |   |   |   |   |--- Current_Improvement_Base_Value >  221800.00
|   |   |   |   |   |   |   |   |   |   |   |--- truncated branch of depth 2
|   |   |   |   |   |   |   |   |--- Landlord_Reappraisal_Year >  2016.50
|   |   |   |   |   |   |   |   |   |--- value: [400004.00]
|   |   |   |   |   |   |   |--- Current_Land_Base_Value >  55950.00
|   |   |   |   |   |   |   |   |--- MA_Localization_int <= 45455.00
|   |   |   |   |   |   |   |   |   |--- CENTER_LAT <= 34.56
|   |   |   |   |   |   |   |   |   |   |--- Current_Land_Base_Value <= 71500.00
|   |   |   |   |   |   |   |   |   |   |   |--- truncated branch of depth 2
|   |   |   |   |   |   |   |   |   |   |--- Current_Land_Base_Value >  71500.00
|   |   |   |   |   |   |   |   |   |   |   |--- truncated branch of depth 2
|   |   |   |   |   |   |   |   |   |--- CENTER_LAT >  34.56
|   |   |   |   |   |   |   |   |   |   |--- Current_Land_Base_Value <= 75750.00
|   |   |   |   |   |   |   |   |   |   |   |--- truncated branch of depth 2
|   |   |   |   |   |   |   |   |   |   |--- Current_Land_Base_Value >  75750.00
|   |   |   |   |   |   |   |   |   |   |   |--- value: [162001.00]
|   |   |   |   |   |   |   |   |--- MA_Localization_int >  45455.00
|   |   |   |   |   |   |   |   |   |--- LAND_Curr_Value <= 74611.50
|   |   |   |   |   |   |   |   |   |   |--- CENTER_LAT <= 34.76
|   |   |   |   |   |   |   |   |   |   |   |--- truncated branch of depth 2
|   |   |   |   |   |   |   |   |   |   |--- CENTER_LAT >  34.76
|   |   |   |   |   |   |   |   |   |   |   |--- value: [232002.00]
|   |   |   |   |   |   |   |   |   |--- LAND_Curr_Value >  74611.50
|   |   |   |   |   |   |   |   |   |   |--- LAND_Curr_Value <= 90444.00
|   |   |   |   |   |   |   |   |   |   |   |--- truncated branch of depth 2
|   |   |   |   |   |   |   |   |   |   |--- LAND_Curr_Value >  90444.00
|   |   |   |   |   |   |   |   |   |   |   |--- value: [230002.00]
|   |   |   |   |   |   |--- Current_Improvement_Base_Value >  228550.00
|   |   |   |   |   |   |   |--- IMPROVE_Curr_Value <= 249516.00
|   |   |   |   |   |   |   |   |--- Current_Land_Base_Value <= 77950.00
|   |   |   |   |   |   |   |   |   |--- BD_LINE_1_No_of_Units <= 0.50
|   |   |   |   |   |   |   |   |   |   |--- Cluster_Type <= 5.50
|   |   |   |   |   |   |   |   |   |   |   |--- value: [385003.00]
|   |   |   |   |   |   |   |   |   |   |--- Cluster_Type >  5.50
|   |   |   |   |   |   |   |   |   |   |   |--- value: [350003.00]
|   |   |   |   |   |   |   |   |   |--- BD_LINE_1_No_of_Units >  0.50
|   |   |   |   |   |   |   |   |   |   |--- BD_LINE_1_Quality__Class___Shap_int <= 1168.50
|   |   |   |   |   |   |   |   |   |   |   |--- truncated branch of depth 2
|   |   |   |   |   |   |   |   |   |   |--- BD_LINE_1_Quality__Class___Shap_int >  1168.50
|   |   |   |   |   |   |   |   |   |   |   |--- truncated branch of depth 2
|   |   |   |   |   |   |   |   |--- Current_Land_Base_Value >  77950.00
|   |   |   |   |   |   |   |   |   |--- BD_LINE_1_Sq_Ft_of_Main_Improve <= 3064.00
|   |   |   |   |   |   |   |   |   |   |--- Current_Improvement_Base_Value <= 230350.00
|   |   |   |   |   |   |   |   |   |   |   |--- truncated branch of depth 2
|   |   |   |   |   |   |   |   |   |   |--- Current_Improvement_Base_Value >  230350.00
|   |   |   |   |   |   |   |   |   |   |   |--- truncated branch of depth 2
|   |   |   |   |   |   |   |   |   |--- BD_LINE_1_Sq_Ft_of_Main_Improve >  3064.00
|   |   |   |   |   |   |   |   |   |   |--- Zoning_Code_int <= 4133.00
|   |   |   |   |   |   |   |   |   |   |   |--- truncated branch of depth 2
|   |   |   |   |   |   |   |   |   |   |--- Zoning_Code_int >  4133.00
|   |   |   |   |   |   |   |   |   |   |   |--- value: [285002.00]
|   |   |   |   |   |   |   |--- IMPROVE_Curr_Value >  249516.00
|   |   |   |   |   |   |   |   |--- value: [75500.00]
|   |   |   |   |--- Current_Improvement_Base_Value >  241150.00
|   |   |   |   |   |--- Current_Land_Base_Value <= 64300.00
|   |   |   |   |   |   |--- Parcel_Area <= 54188.00
|   |   |   |   |   |   |   |--- Cluster_Type <= 5.00
|   |   |   |   |   |   |   |   |--- Current_Land_Base_Value <= 62100.00
|   |   |   |   |   |   |   |   |   |--- LAND_Curr_Value <= 45639.50
|   |   |   |   |   |   |   |   |   |   |--- LAND_Curr_Value <= 43939.50
|   |   |   |   |   |   |   |   |   |   |   |--- value: [340003.00]
|   |   |   |   |   |   |   |   |   |   |--- LAND_Curr_Value >  43939.50
|   |   |   |   |   |   |   |   |   |   |   |--- value: [339503.00]
|   |   |   |   |   |   |   |   |   |--- LAND_Curr_Value >  45639.50
|   |   |   |   |   |   |   |   |   |   |--- BD_LINE_1_Year_Changed <= 2015.50
|   |   |   |   |   |   |   |   |   |   |   |--- truncated branch of depth 2
|   |   |   |   |   |   |   |   |   |   |--- BD_LINE_1_Year_Changed >  2015.50
|   |   |   |   |   |   |   |   |   |   |   |--- truncated branch of depth 2
|   |   |   |   |   |   |   |   |--- Current_Land_Base_Value >  62100.00
|   |   |   |   |   |   |   |   |   |--- Current_Land_Base_Value <= 62300.00
|   |   |   |   |   |   |   |   |   |   |--- Cluster_Appraisal_Unit <= 24.50
|   |   |   |   |   |   |   |   |   |   |   |--- value: [400004.00]
|   |   |   |   |   |   |   |   |   |   |--- Cluster_Appraisal_Unit >  24.50
|   |   |   |   |   |   |   |   |   |   |   |--- value: [311003.00]
|   |   |   |   |   |   |   |   |   |--- Current_Land_Base_Value >  62300.00
|   |   |   |   |   |   |   |   |   |   |--- Current_Improvement_Base_Value <= 254000.00
|   |   |   |   |   |   |   |   |   |   |   |--- truncated branch of depth 2
|   |   |   |   |   |   |   |   |   |   |--- Current_Improvement_Base_Value >  254000.00
|   |   |   |   |   |   |   |   |   |   |   |--- truncated branch of depth 2
|   |   |   |   |   |   |   |--- Cluster_Type >  5.00
|   |   |   |   |   |   |   |   |--- value: [205002.00]
|   |   |   |   |   |   |--- Parcel_Area >  54188.00
|   |   |   |   |   |   |   |--- Landlord_Number_of_Units <= 0.50
|   |   |   |   |   |   |   |   |--- value: [379003.00]
|   |   |   |   |   |   |   |--- Landlord_Number_of_Units >  0.50
|   |   |   |   |   |   |   |   |--- value: [407004.00]
|   |   |   |   |   |--- Current_Land_Base_Value >  64300.00
|   |   |   |   |   |   |--- BD_LINE_1_Sq_Ft_of_Main_Improve <= 3766.50
|   |   |   |   |   |   |   |--- CENTER_LAT <= 34.73
|   |   |   |   |   |   |   |   |--- Current_Improvement_Base_Value <= 265750.00
|   |   |   |   |   |   |   |   |   |--- Current_Improvement_Base_Value <= 265550.00
|   |   |   |   |   |   |   |   |   |   |--- LAND_Curr_Value <= 84957.50
|   |   |   |   |   |   |   |   |   |   |   |--- truncated branch of depth 2
|   |   |   |   |   |   |   |   |   |   |--- LAND_Curr_Value >  84957.50
|   |   |   |   |   |   |   |   |   |   |   |--- truncated branch of depth 2
|   |   |   |   |   |   |   |   |   |--- Current_Improvement_Base_Value >  265550.00
|   |   |   |   |   |   |   |   |   |   |--- Agricultural <= 0.50
|   |   |   |   |   |   |   |   |   |   |   |--- value: [332003.00]
|   |   |   |   |   |   |   |   |   |   |--- Agricultural >  0.50
|   |   |   |   |   |   |   |   |   |   |   |--- value: [217002.00]
|   |   |   |   |   |   |   |   |--- Current_Improvement_Base_Value >  265750.00
|   |   |   |   |   |   |   |   |   |--- Current_Land_Base_Year <= 2011.00
|   |   |   |   |   |   |   |   |   |   |--- CENTER_LAT <= 34.61
|   |   |   |   |   |   |   |   |   |   |   |--- value: [290002.00]
|   |   |   |   |   |   |   |   |   |   |--- CENTER_LAT >  34.61
|   |   |   |   |   |   |   |   |   |   |   |--- value: [328003.00]
|   |   |   |   |   |   |   |   |   |--- Current_Land_Base_Year >  2011.00
|   |   |   |   |   |   |   |   |   |   |--- Current_Land_Base_Value <= 71900.00
|   |   |   |   |   |   |   |   |   |   |   |--- truncated branch of depth 2
|   |   |   |   |   |   |   |   |   |   |--- Current_Land_Base_Value >  71900.00
|   |   |   |   |   |   |   |   |   |   |   |--- truncated branch of depth 2
|   |   |   |   |   |   |   |--- CENTER_LAT >  34.73
|   |   |   |   |   |   |   |   |--- Current_Land_Base_Value <= 82500.00
|   |   |   |   |   |   |   |   |   |--- value: [325003.00]
|   |   |   |   |   |   |   |   |--- Current_Land_Base_Value >  82500.00
|   |   |   |   |   |   |   |   |   |--- Zoning_Code_int <= 3004.50
|   |   |   |   |   |   |   |   |   |   |--- value: [267502.00]
|   |   |   |   |   |   |   |   |   |--- Zoning_Code_int >  3004.50
|   |   |   |   |   |   |   |   |   |   |--- value: [250002.00]
|   |   |   |   |   |   |--- BD_LINE_1_Sq_Ft_of_Main_Improve >  3766.50
|   |   |   |   |   |   |   |--- Current_Land_Base_Value <= 70196.50
|   |   |   |   |   |   |   |   |--- Current_Land_Base_Year <= 2016.50
|   |   |   |   |   |   |   |   |   |--- Parcel_Area <= 7471.00
|   |   |   |   |   |   |   |   |   |   |--- value: [325003.00]
|   |   |   |   |   |   |   |   |   |--- Parcel_Area >  7471.00
|   |   |   |   |   |   |   |   |   |   |--- value: [322503.00]
|   |   |   |   |   |   |   |   |--- Current_Land_Base_Year >  2016.50
|   |   |   |   |   |   |   |   |   |--- value: [345003.00]
|   |   |   |   |   |   |   |--- Current_Land_Base_Value >  70196.50
|   |   |   |   |   |   |   |   |--- BD_LINE_1_Year_Changed <= 2007.50
|   |   |   |   |   |   |   |   |   |--- SA_Localization_int <= 37868.50
|   |   |   |   |   |   |   |   |   |   |--- BD_LINE_1_Sq_Ft_of_Main_Improve <= 3779.50
|   |   |   |   |   |   |   |   |   |   |   |--- value: [235002.00]
|   |   |   |   |   |   |   |   |   |   |--- BD_LINE_1_Sq_Ft_of_Main_Improve >  3779.50
|   |   |   |   |   |   |   |   |   |   |   |--- value: [250002.00]
|   |   |   |   |   |   |   |   |   |--- SA_Localization_int >  37868.50
|   |   |   |   |   |   |   |   |   |   |--- value: [180001.00]
|   |   |   |   |   |   |   |   |--- BD_LINE_1_Year_Changed >  2007.50
|   |   |   |   |   |   |   |   |   |--- value: [330003.00]
|   |   |   |--- IMPROVE_Curr_Value >  279649.50
|   |   |   |   |--- Current_Improvement_Base_Value <= 310200.00
|   |   |   |   |   |--- Current_Land_Base_Year <= 2014.00
|   |   |   |   |   |   |--- Zoning_Code_int <= 3208.50
|   |   |   |   |   |   |   |--- Landlord_Reappraisal_Year <= 1006.50
|   |   |   |   |   |   |   |   |--- value: [420004.00]
|   |   |   |   |   |   |   |--- Landlord_Reappraisal_Year >  1006.50
|   |   |   |   |   |   |   |   |--- value: [400004.00]
|   |   |   |   |   |   |--- Zoning_Code_int >  3208.50
|   |   |   |   |   |   |   |--- LAND_Curr_Value <= 71616.00
|   |   |   |   |   |   |   |   |--- Parcel_Area <= 2186.00
|   |   |   |   |   |   |   |   |   |--- value: [477004.00]
|   |   |   |   |   |   |   |   |--- Parcel_Area >  2186.00
|   |   |   |   |   |   |   |   |   |--- value: [475004.00]
|   |   |   |   |   |   |   |--- LAND_Curr_Value >  71616.00
|   |   |   |   |   |   |   |   |--- Cluster_Type <= 5.00
|   |   |   |   |   |   |   |   |   |--- value: [482004.00]
|   |   |   |   |   |   |   |   |--- Cluster_Type >  5.00
|   |   |   |   |   |   |   |   |   |--- value: [480004.00]
|   |   |   |   |   |--- Current_Land_Base_Year >  2014.00
|   |   |   |   |   |   |--- Current_Land_Base_Value <= 72400.00
|   |   |   |   |   |   |   |--- Current_Land_Base_Value <= 70500.00
|   |   |   |   |   |   |   |   |--- BD_LINE_1_Year_Changed <= 2013.50
|   |   |   |   |   |   |   |   |   |--- Current_Improvement_Base_Value <= 277000.00
|   |   |   |   |   |   |   |   |   |   |--- Current_Land_Base_Value <= 68300.00
|   |   |   |   |   |   |   |   |   |   |   |--- truncated branch of depth 2
|   |   |   |   |   |   |   |   |   |   |--- Current_Land_Base_Value >  68300.00
|   |   |   |   |   |   |   |   |   |   |   |--- truncated branch of depth 2
|   |   |   |   |   |   |   |   |   |--- Current_Improvement_Base_Value >  277000.00
|   |   |   |   |   |   |   |   |   |   |--- LAND_Curr_Value <= 41820.00
|   |   |   |   |   |   |   |   |   |   |   |--- value: [320003.00]
|   |   |   |   |   |   |   |   |   |   |--- LAND_Curr_Value >  41820.00
|   |   |   |   |   |   |   |   |   |   |   |--- truncated branch of depth 2
|   |   |   |   |   |   |   |   |--- BD_LINE_1_Year_Changed >  2013.50
|   |   |   |   |   |   |   |   |   |--- LAND_Curr_Value <= 62223.00
|   |   |   |   |   |   |   |   |   |   |--- value: [275002.00]
|   |   |   |   |   |   |   |   |   |--- LAND_Curr_Value >  62223.00
|   |   |   |   |   |   |   |   |   |   |--- Current_Land_Base_Value <= 68350.00
|   |   |   |   |   |   |   |   |   |   |   |--- truncated branch of depth 2
|   |   |   |   |   |   |   |   |   |   |--- Current_Land_Base_Value >  68350.00
|   |   |   |   |   |   |   |   |   |   |   |--- truncated branch of depth 2
|   |   |   |   |   |   |   |--- Current_Land_Base_Value >  70500.00
|   |   |   |   |   |   |   |   |--- Current_Land_Base_Value <= 71500.00
|   |   |   |   |   |   |   |   |   |--- Current_Land_Base_Value <= 71150.00
|   |   |   |   |   |   |   |   |   |   |--- Current_Improvement_Base_Value <= 283600.00
|   |   |   |   |   |   |   |   |   |   |   |--- truncated branch of depth 2
|   |   |   |   |   |   |   |   |   |   |--- Current_Improvement_Base_Value >  283600.00
|   |   |   |   |   |   |   |   |   |   |   |--- truncated branch of depth 2
|   |   |   |   |   |   |   |   |   |--- Current_Land_Base_Value >  71150.00
|   |   |   |   |   |   |   |   |   |   |--- Current_Improvement_Base_Value <= 285150.00
|   |   |   |   |   |   |   |   |   |   |   |--- value: [356003.00]
|   |   |   |   |   |   |   |   |   |   |--- Current_Improvement_Base_Value >  285150.00
|   |   |   |   |   |   |   |   |   |   |   |--- value: [357003.00]
|   |   |   |   |   |   |   |   |--- Current_Land_Base_Value >  71500.00
|   |   |   |   |   |   |   |   |   |--- Current_Land_Base_Value <= 71700.00
|   |   |   |   |   |   |   |   |   |   |--- value: [358003.00]
|   |   |   |   |   |   |   |   |   |--- Current_Land_Base_Value >  71700.00
|   |   |   |   |   |   |   |   |   |   |--- Current_Improvement_Base_Value <= 287550.00
|   |   |   |   |   |   |   |   |   |   |   |--- truncated branch of depth 2
|   |   |   |   |   |   |   |   |   |   |--- Current_Improvement_Base_Value >  287550.00
|   |   |   |   |   |   |   |   |   |   |   |--- value: [360003.00]
|   |   |   |   |   |   |--- Current_Land_Base_Value >  72400.00
|   |   |   |   |   |   |   |--- LAND_Curr_Value <= 94057.00
|   |   |   |   |   |   |   |   |--- Current_Improvement_Base_Value <= 299000.00
|   |   |   |   |   |   |   |   |   |--- Current_Improvement_Base_Value <= 293800.00
|   |   |   |   |   |   |   |   |   |   |--- Cluster_Appraisal_Unit <= 90.50
|   |   |   |   |   |   |   |   |   |   |   |--- truncated branch of depth 2
|   |   |   |   |   |   |   |   |   |   |--- Cluster_Appraisal_Unit >  90.50
|   |   |   |   |   |   |   |   |   |   |   |--- truncated branch of depth 2
|   |   |   |   |   |   |   |   |   |--- Current_Improvement_Base_Value >  293800.00
|   |   |   |   |   |   |   |   |   |   |--- Current_Improvement_Base_Value <= 297000.00
|   |   |   |   |   |   |   |   |   |   |   |--- truncated branch of depth 2
|   |   |   |   |   |   |   |   |   |   |--- Current_Improvement_Base_Value >  297000.00
|   |   |   |   |   |   |   |   |   |   |   |--- value: [372503.00]
|   |   |   |   |   |   |   |   |--- Current_Improvement_Base_Value >  299000.00
|   |   |   |   |   |   |   |   |   |--- Current_Improvement_Base_Value <= 305600.00
|   |   |   |   |   |   |   |   |   |   |--- Current_Land_Base_Value <= 75450.00
|   |   |   |   |   |   |   |   |   |   |   |--- truncated branch of depth 2
|   |   |   |   |   |   |   |   |   |   |--- Current_Land_Base_Value >  75450.00
|   |   |   |   |   |   |   |   |   |   |   |--- truncated branch of depth 2
|   |   |   |   |   |   |   |   |   |--- Current_Improvement_Base_Value >  305600.00
|   |   |   |   |   |   |   |   |   |   |--- Current_Land_Base_Value <= 77100.00
|   |   |   |   |   |   |   |   |   |   |   |--- truncated branch of depth 2
|   |   |   |   |   |   |   |   |   |   |--- Current_Land_Base_Value >  77100.00
|   |   |   |   |   |   |   |   |   |   |   |--- truncated branch of depth 2
|   |   |   |   |   |   |   |--- LAND_Curr_Value >  94057.00
|   |   |   |   |   |   |   |   |--- value: [250002.00]
|   |   |   |   |--- Current_Improvement_Base_Value >  310200.00
|   |   |   |   |   |--- BD_LINE_1_Sq_Ft_of_Main_Improve <= 6079.00
|   |   |   |   |   |   |--- Current_Improvement_Base_Value <= 340650.00
|   |   |   |   |   |   |   |--- Current_Land_Base_Value <= 80500.00
|   |   |   |   |   |   |   |   |--- Cluster_Appraisal_Unit <= 93.00
|   |   |   |   |   |   |   |   |   |--- Cluster_Type <= 0.50
|   |   |   |   |   |   |   |   |   |   |--- value: [425004.00]
|   |   |   |   |   |   |   |   |   |--- Cluster_Type >  0.50
|   |   |   |   |   |   |   |   |   |   |--- LAND_Curr_Value <= 65632.50
|   |   |   |   |   |   |   |   |   |   |   |--- truncated branch of depth 2
|   |   |   |   |   |   |   |   |   |   |--- LAND_Curr_Value >  65632.50
|   |   |   |   |   |   |   |   |   |   |   |--- truncated branch of depth 2
|   |   |   |   |   |   |   |   |--- Cluster_Appraisal_Unit >  93.00
|   |   |   |   |   |   |   |   |   |--- City_int <= 163.50
|   |   |   |   |   |   |   |   |   |   |--- SA_Zip_Cde <= 904189984.00
|   |   |   |   |   |   |   |   |   |   |   |--- value: [369003.00]
|   |   |   |   |   |   |   |   |   |   |--- SA_Zip_Cde >  904189984.00
|   |   |   |   |   |   |   |   |   |   |   |--- value: [385003.00]
|   |   |   |   |   |   |   |   |   |--- City_int >  163.50
|   |   |   |   |   |   |   |   |   |   |--- value: [340003.00]
|   |   |   |   |   |   |   |--- Current_Land_Base_Value >  80500.00
|   |   |   |   |   |   |   |   |--- Parcel_Area <= 95388.00
|   |   |   |   |   |   |   |   |   |--- Current_Improvement_Base_Value <= 329335.00
|   |   |   |   |   |   |   |   |   |   |--- Current_Improvement_Base_Value <= 324800.00
|   |   |   |   |   |   |   |   |   |   |   |--- truncated branch of depth 2
|   |   |   |   |   |   |   |   |   |   |--- Current_Improvement_Base_Value >  324800.00
|   |   |   |   |   |   |   |   |   |   |   |--- truncated branch of depth 2
|   |   |   |   |   |   |   |   |   |--- Current_Improvement_Base_Value >  329335.00
|   |   |   |   |   |   |   |   |   |   |--- Current_Improvement_Base_Value <= 334400.00
|   |   |   |   |   |   |   |   |   |   |   |--- truncated branch of depth 2
|   |   |   |   |   |   |   |   |   |   |--- Current_Improvement_Base_Value >  334400.00
|   |   |   |   |   |   |   |   |   |   |   |--- truncated branch of depth 2
|   |   |   |   |   |   |   |   |--- Parcel_Area >  95388.00
